digraph Tree {
node [shape=box] ;
0 [label="X[26] <= 3110.535\ngini = 0.984\nsamples = 20150\nvalue = [1, 1, 2 ..., 1, 1, 1]"] ;
1 [label="X[37] <= 0.5\ngini = 0.982\nsamples = 12131\nvalue = [1, 0, 1 ..., 1, 0, 0]"] ;
0 -> 1 [labeldistance=2.5, labelangle=45, headlabel="True"] ;
2 [label="X[0] <= 349.5\ngini = 0.983\nsamples = 10706\nvalue = [1, 0, 1 ..., 0, 0, 0]"] ;
1 -> 2 ;
3 [label="X[38] <= 0.201\ngini = 0.98\nsamples = 4947\nvalue = [1, 0, 1 ..., 0, 0, 0]"] ;
2 -> 3 ;
4 [label="X[16] <= 0.5\ngini = 0.98\nsamples = 3771\nvalue = [1, 0, 0 ..., 0, 0, 0]"] ;
3 -> 4 ;
5 [label="X[10] <= 4.105\ngini = 0.982\nsamples = 2915\nvalue = [1, 0, 0 ..., 0, 0, 0]"] ;
4 -> 5 ;
6 [label="X[51] <= 0.875\ngini = 0.965\nsamples = 107\nvalue = [0, 0, 0 ..., 0, 0, 0]"] ;
5 -> 6 ;
7 [label="X[0] <= 15.0\ngini = 0.968\nsamples = 93\nvalue = [0, 0, 0 ..., 0, 0, 0]"] ;
6 -> 7 ;
8 [label="gini = 0.0\nsamples = 2\nvalue = [0, 0, 0 ..., 0, 0, 0]"] ;
7 -> 8 ;
9 [label="X[38] <= 0.033\ngini = 0.969\nsamples = 91\nvalue = [0, 0, 0 ..., 0, 0, 0]"] ;
7 -> 9 ;
10 [label="X[21] <= 9200.0\ngini = 0.957\nsamples = 54\nvalue = [0, 0, 0 ..., 0, 0, 0]"] ;
9 -> 10 ;
11 [label="X[25] <= 5868.332\ngini = 0.962\nsamples = 52\nvalue = [0, 0, 0 ..., 0, 0, 0]"] ;
10 -> 11 ;
12 [label="X[23] <= 293386.0\ngini = 0.962\nsamples = 45\nvalue = [0, 0, 0 ..., 0, 0, 0]"] ;
11 -> 12 ;
13 [label="X[1] <= 13.5\ngini = 0.955\nsamples = 39\nvalue = [0, 0, 0 ..., 0, 0, 0]"] ;
12 -> 13 ;
14 [label="X[41] <= 0.025\ngini = 0.95\nsamples = 35\nvalue = [0, 0, 0 ..., 0, 0, 0]"] ;
13 -> 14 ;
15 [label="X[20] <= 205.723\ngini = 0.778\nsamples = 6\nvalue = [0, 0, 0 ..., 0, 0, 0]"] ;
14 -> 15 ;
16 [label="X[38] <= 0.021\ngini = 0.75\nsamples = 4\nvalue = [0, 0, 0 ..., 0, 0, 0]"] ;
15 -> 16 ;
17 [label="gini = 0.0\nsamples = 1\nvalue = [0, 0, 0 ..., 0, 0, 0]"] ;
16 -> 17 ;
18 [label="X[21] <= 1111.0\ngini = 0.667\nsamples = 3\nvalue = [0, 0, 0 ..., 0, 0, 0]"] ;
16 -> 18 ;
19 [label="gini = 0.0\nsamples = 1\nvalue = [0, 0, 0 ..., 0, 0, 0]"] ;
18 -> 19 ;
20 [label="X[33] <= 0.5\ngini = 0.5\nsamples = 2\nvalue = [0, 0, 0 ..., 0, 0, 0]"] ;
18 -> 20 ;
21 [label="gini = 0.0\nsamples = 1\nvalue = [0, 0, 0 ..., 0, 0, 0]"] ;
20 -> 21 ;
22 [label="gini = 0.0\nsamples = 1\nvalue = [0, 0, 0 ..., 0, 0, 0]"] ;
20 -> 22 ;
23 [label="gini = 0.0\nsamples = 2\nvalue = [0, 0, 0 ..., 0, 0, 0]"] ;
15 -> 23 ;
24 [label="X[26] <= 2311.774\ngini = 0.937\nsamples = 29\nvalue = [0, 0, 0 ..., 0, 0, 0]"] ;
14 -> 24 ;
25 [label="X[39] <= 0.077\ngini = 0.793\nsamples = 11\nvalue = [0, 0, 0 ..., 0, 0, 0]"] ;
24 -> 25 ;
26 [label="X[39] <= 0.027\ngini = 0.741\nsamples = 9\nvalue = [0, 0, 0 ..., 0, 0, 0]"] ;
25 -> 26 ;
27 [label="gini = 0.0\nsamples = 3\nvalue = [0, 0, 0 ..., 0, 0, 0]"] ;
26 -> 27 ;
28 [label="X[21] <= 550.0\ngini = 0.833\nsamples = 6\nvalue = [0, 0, 0 ..., 0, 0, 0]"] ;
26 -> 28 ;
29 [label="X[39] <= 0.029\ngini = 0.667\nsamples = 3\nvalue = [0, 0, 0 ..., 0, 0, 0]"] ;
28 -> 29 ;
30 [label="gini = 0.0\nsamples = 1\nvalue = [0, 0, 0 ..., 0, 0, 0]"] ;
29 -> 30 ;
31 [label="X[42] <= 0.108\ngini = 0.5\nsamples = 2\nvalue = [0, 0, 0 ..., 0, 0, 0]"] ;
29 -> 31 ;
32 [label="gini = 0.0\nsamples = 1\nvalue = [0, 0, 0 ..., 0, 0, 0]"] ;
31 -> 32 ;
33 [label="gini = 0.0\nsamples = 1\nvalue = [0, 0, 0 ..., 0, 0, 0]"] ;
31 -> 33 ;
34 [label="X[6] <= 2.5\ngini = 0.667\nsamples = 3\nvalue = [0, 0, 0 ..., 0, 0, 0]"] ;
28 -> 34 ;
35 [label="X[41] <= 0.029\ngini = 0.5\nsamples = 2\nvalue = [0, 0, 0 ..., 0, 0, 0]"] ;
34 -> 35 ;
36 [label="gini = 0.0\nsamples = 1\nvalue = [0, 0, 0 ..., 0, 0, 0]"] ;
35 -> 36 ;
37 [label="gini = 0.0\nsamples = 1\nvalue = [0, 0, 0 ..., 0, 0, 0]"] ;
35 -> 37 ;
38 [label="gini = 0.0\nsamples = 1\nvalue = [0, 0, 0 ..., 0, 0, 0]"] ;
34 -> 38 ;
39 [label="gini = 0.0\nsamples = 2\nvalue = [0, 0, 0 ..., 0, 0, 0]"] ;
25 -> 39 ;
40 [label="X[34] <= 0.5\ngini = 0.938\nsamples = 18\nvalue = [0, 0, 0 ..., 0, 0, 0]"] ;
24 -> 40 ;
41 [label="X[51] <= 0.375\ngini = 0.929\nsamples = 14\nvalue = [0, 0, 0 ..., 0, 0, 0]"] ;
40 -> 41 ;
42 [label="X[13] <= 0.5\ngini = 0.917\nsamples = 12\nvalue = [0, 0, 0 ..., 0, 0, 0]"] ;
41 -> 42 ;
43 [label="X[11] <= 6.5\ngini = 0.875\nsamples = 8\nvalue = [0, 0, 0 ..., 0, 0, 0]"] ;
42 -> 43 ;
44 [label="gini = 0.0\nsamples = 1\nvalue = [0, 0, 0 ..., 0, 0, 0]"] ;
43 -> 44 ;
45 [label="X[1] <= 9.0\ngini = 0.857\nsamples = 7\nvalue = [0, 0, 0 ..., 0, 0, 0]"] ;
43 -> 45 ;
46 [label="X[40] <= 0.607\ngini = 0.75\nsamples = 4\nvalue = [0, 0, 0 ..., 0, 0, 0]"] ;
45 -> 46 ;
47 [label="gini = 0.0\nsamples = 1\nvalue = [0, 0, 0 ..., 0, 0, 0]"] ;
46 -> 47 ;
48 [label="X[26] <= 2604.876\ngini = 0.667\nsamples = 3\nvalue = [0, 0, 0 ..., 0, 0, 0]"] ;
46 -> 48 ;
49 [label="gini = 0.0\nsamples = 1\nvalue = [0, 0, 0 ..., 0, 0, 0]"] ;
48 -> 49 ;
50 [label="X[33] <= 0.5\ngini = 0.5\nsamples = 2\nvalue = [0, 0, 0 ..., 0, 0, 0]"] ;
48 -> 50 ;
51 [label="gini = 0.0\nsamples = 1\nvalue = [0, 0, 0 ..., 0, 0, 0]"] ;
50 -> 51 ;
52 [label="gini = 0.0\nsamples = 1\nvalue = [0, 0, 0 ..., 0, 0, 0]"] ;
50 -> 52 ;
53 [label="X[24] <= 1150.0\ngini = 0.667\nsamples = 3\nvalue = [0, 0, 0 ..., 0, 0, 0]"] ;
45 -> 53 ;
54 [label="gini = 0.0\nsamples = 1\nvalue = [0, 0, 0 ..., 0, 0, 0]"] ;
53 -> 54 ;
55 [label="X[40] <= 0.643\ngini = 0.5\nsamples = 2\nvalue = [0, 0, 0 ..., 0, 0, 0]"] ;
53 -> 55 ;
56 [label="gini = 0.0\nsamples = 1\nvalue = [0, 0, 0 ..., 0, 0, 0]"] ;
55 -> 56 ;
57 [label="gini = 0.0\nsamples = 1\nvalue = [0, 0, 0 ..., 0, 0, 0]"] ;
55 -> 57 ;
58 [label="X[33] <= 0.5\ngini = 0.75\nsamples = 4\nvalue = [0, 0, 0 ..., 0, 0, 0]"] ;
42 -> 58 ;
59 [label="X[24] <= 539.5\ngini = 0.667\nsamples = 3\nvalue = [0, 0, 0 ..., 0, 0, 0]"] ;
58 -> 59 ;
60 [label="X[56] <= 0.387\ngini = 0.5\nsamples = 2\nvalue = [0, 0, 0 ..., 0, 0, 0]"] ;
59 -> 60 ;
61 [label="gini = 0.0\nsamples = 1\nvalue = [0, 0, 0 ..., 0, 0, 0]"] ;
60 -> 61 ;
62 [label="gini = 0.0\nsamples = 1\nvalue = [0, 0, 0 ..., 0, 0, 0]"] ;
60 -> 62 ;
63 [label="gini = 0.0\nsamples = 1\nvalue = [0, 0, 0 ..., 0, 0, 0]"] ;
59 -> 63 ;
64 [label="gini = 0.0\nsamples = 1\nvalue = [0, 0, 0 ..., 0, 0, 0]"] ;
58 -> 64 ;
65 [label="X[50] <= 0.099\ngini = 0.5\nsamples = 2\nvalue = [0, 0, 0 ..., 0, 0, 0]"] ;
41 -> 65 ;
66 [label="gini = 0.0\nsamples = 1\nvalue = [0, 0, 0 ..., 0, 0, 0]"] ;
65 -> 66 ;
67 [label="gini = 0.0\nsamples = 1\nvalue = [0, 0, 0 ..., 0, 0, 0]"] ;
65 -> 67 ;
68 [label="X[55] <= 0.25\ngini = 0.625\nsamples = 4\nvalue = [0, 0, 0 ..., 0, 0, 0]"] ;
40 -> 68 ;
69 [label="gini = 0.0\nsamples = 2\nvalue = [0, 0, 0 ..., 0, 0, 0]"] ;
68 -> 69 ;
70 [label="X[20] <= 317.167\ngini = 0.5\nsamples = 2\nvalue = [0, 0, 0 ..., 0, 0, 0]"] ;
68 -> 70 ;
71 [label="gini = 0.0\nsamples = 1\nvalue = [0, 0, 0 ..., 0, 0, 0]"] ;
70 -> 71 ;
72 [label="gini = 0.0\nsamples = 1\nvalue = [0, 0, 0 ..., 0, 0, 0]"] ;
70 -> 72 ;
73 [label="X[8] <= 6.5\ngini = 0.625\nsamples = 4\nvalue = [0, 0, 0 ..., 0, 0, 0]"] ;
13 -> 73 ;
74 [label="X[25] <= 4538.982\ngini = 0.5\nsamples = 2\nvalue = [0, 0, 0 ..., 0, 0, 0]"] ;
73 -> 74 ;
75 [label="gini = 0.0\nsamples = 1\nvalue = [0, 0, 0 ..., 0, 0, 0]"] ;
74 -> 75 ;
76 [label="gini = 0.0\nsamples = 1\nvalue = [0, 0, 0 ..., 0, 0, 0]"] ;
74 -> 76 ;
77 [label="gini = 0.0\nsamples = 2\nvalue = [0, 0, 0 ..., 0, 0, 0]"] ;
73 -> 77 ;
78 [label="X[19] <= 708.5\ngini = 0.778\nsamples = 6\nvalue = [0, 0, 0 ..., 0, 0, 0]"] ;
12 -> 78 ;
79 [label="X[42] <= 0.027\ngini = 0.75\nsamples = 4\nvalue = [0, 0, 0 ..., 0, 0, 0]"] ;
78 -> 79 ;
80 [label="gini = 0.0\nsamples = 1\nvalue = [0, 0, 0 ..., 0, 0, 0]"] ;
79 -> 80 ;
81 [label="X[0] <= 117.0\ngini = 0.667\nsamples = 3\nvalue = [0, 0, 0 ..., 0, 0, 0]"] ;
79 -> 81 ;
82 [label="gini = 0.0\nsamples = 1\nvalue = [0, 0, 0 ..., 0, 0, 0]"] ;
81 -> 82 ;
83 [label="X[2] <= 167.5\ngini = 0.5\nsamples = 2\nvalue = [0, 0, 0 ..., 0, 0, 0]"] ;
81 -> 83 ;
84 [label="gini = 0.0\nsamples = 1\nvalue = [0, 0, 0 ..., 0, 0, 0]"] ;
83 -> 84 ;
85 [label="gini = 0.0\nsamples = 1\nvalue = [0, 0, 0 ..., 0, 0, 0]"] ;
83 -> 85 ;
86 [label="gini = 0.0\nsamples = 2\nvalue = [0, 0, 0 ..., 0, 0, 0]"] ;
78 -> 86 ;
87 [label="X[39] <= 0.022\ngini = 0.735\nsamples = 7\nvalue = [0, 0, 0 ..., 0, 0, 0]"] ;
11 -> 87 ;
88 [label="gini = 0.0\nsamples = 3\nvalue = [0, 0, 0 ..., 0, 0, 0]"] ;
87 -> 88 ;
89 [label="X[23] <= 266381.75\ngini = 0.75\nsamples = 4\nvalue = [0, 0, 0 ..., 0, 0, 0]"] ;
87 -> 89 ;
90 [label="gini = 0.0\nsamples = 1\nvalue = [0, 0, 0 ..., 0, 0, 0]"] ;
89 -> 90 ;
91 [label="X[55] <= 0.5\ngini = 0.667\nsamples = 3\nvalue = [0, 0, 0 ..., 0, 0, 0]"] ;
89 -> 91 ;
92 [label="X[25] <= 6455.164\ngini = 0.5\nsamples = 2\nvalue = [0, 0, 0 ..., 0, 0, 0]"] ;
91 -> 92 ;
93 [label="gini = 0.0\nsamples = 1\nvalue = [0, 0, 0 ..., 0, 0, 0]"] ;
92 -> 93 ;
94 [label="gini = 0.0\nsamples = 1\nvalue = [0, 0, 0 ..., 0, 0, 0]"] ;
92 -> 94 ;
95 [label="gini = 0.0\nsamples = 1\nvalue = [0, 0, 0 ..., 0, 0, 0]"] ;
91 -> 95 ;
96 [label="gini = 0.0\nsamples = 2\nvalue = [0, 0, 0 ..., 0, 0, 0]"] ;
10 -> 96 ;
97 [label="X[19] <= 1100.0\ngini = 0.945\nsamples = 37\nvalue = [0, 0, 0 ..., 0, 0, 0]"] ;
9 -> 97 ;
98 [label="X[33] <= 0.5\ngini = 0.951\nsamples = 32\nvalue = [0, 0, 0 ..., 0, 0, 0]"] ;
97 -> 98 ;
99 [label="X[25] <= 4336.042\ngini = 0.953\nsamples = 26\nvalue = [0, 0, 0 ..., 0, 0, 0]"] ;
98 -> 99 ;
100 [label="X[25] <= 3732.084\ngini = 0.949\nsamples = 23\nvalue = [0, 0, 0 ..., 0, 0, 0]"] ;
99 -> 100 ;
101 [label="X[42] <= 0.027\ngini = 0.944\nsamples = 18\nvalue = [0, 0, 0 ..., 0, 0, 0]"] ;
100 -> 101 ;
102 [label="gini = 0.0\nsamples = 1\nvalue = [0, 0, 0 ..., 0, 0, 0]"] ;
101 -> 102 ;
103 [label="X[47] <= 0.378\ngini = 0.941\nsamples = 17\nvalue = [0, 0, 0 ..., 0, 0, 0]"] ;
101 -> 103 ;
104 [label="X[38] <= 0.033\ngini = 0.933\nsamples = 15\nvalue = [0, 0, 0 ..., 0, 0, 0]"] ;
103 -> 104 ;
105 [label="gini = 0.0\nsamples = 1\nvalue = [0, 0, 0 ..., 0, 0, 0]"] ;
104 -> 105 ;
106 [label="X[38] <= 0.037\ngini = 0.929\nsamples = 14\nvalue = [0, 0, 0 ..., 0, 0, 0]"] ;
104 -> 106 ;
107 [label="gini = 0.0\nsamples = 1\nvalue = [0, 0, 0 ..., 0, 0, 0]"] ;
106 -> 107 ;
108 [label="X[1] <= 6.5\ngini = 0.923\nsamples = 13\nvalue = [0, 0, 0 ..., 0, 0, 0]"] ;
106 -> 108 ;
109 [label="gini = 0.0\nsamples = 1\nvalue = [0, 0, 0 ..., 0, 0, 0]"] ;
108 -> 109 ;
110 [label="X[0] <= 30.0\ngini = 0.917\nsamples = 12\nvalue = [0, 0, 0 ..., 0, 0, 0]"] ;
108 -> 110 ;
111 [label="gini = 0.0\nsamples = 1\nvalue = [0, 0, 0 ..., 0, 0, 0]"] ;
110 -> 111 ;
112 [label="X[11] <= 3.5\ngini = 0.909\nsamples = 11\nvalue = [0, 0, 0 ..., 0, 0, 0]"] ;
110 -> 112 ;
113 [label="gini = 0.0\nsamples = 1\nvalue = [0, 0, 0 ..., 0, 0, 0]"] ;
112 -> 113 ;
114 [label="X[26] <= 2014.185\ngini = 0.9\nsamples = 10\nvalue = [0, 0, 0 ..., 0, 0, 0]"] ;
112 -> 114 ;
115 [label="gini = 0.0\nsamples = 1\nvalue = [0, 0, 0 ..., 0, 0, 0]"] ;
114 -> 115 ;
116 [label="X[1] <= 8.0\ngini = 0.889\nsamples = 9\nvalue = [0, 0, 0 ..., 0, 0, 0]"] ;
114 -> 116 ;
117 [label="gini = 0.0\nsamples = 1\nvalue = [0, 0, 0 ..., 0, 0, 0]"] ;
116 -> 117 ;
118 [label="X[32] <= 0.5\ngini = 0.875\nsamples = 8\nvalue = [0, 0, 0 ..., 0, 0, 0]"] ;
116 -> 118 ;
119 [label="X[26] <= 2217.045\ngini = 0.833\nsamples = 6\nvalue = [0, 0, 0 ..., 0, 0, 0]"] ;
118 -> 119 ;
120 [label="gini = 0.0\nsamples = 1\nvalue = [0, 0, 0 ..., 0, 0, 0]"] ;
119 -> 120 ;
121 [label="X[8] <= 4.0\ngini = 0.8\nsamples = 5\nvalue = [0, 0, 0 ..., 0, 0, 0]"] ;
119 -> 121 ;
122 [label="X[42] <= 0.045\ngini = 0.5\nsamples = 2\nvalue = [0, 0, 0 ..., 0, 0, 0]"] ;
121 -> 122 ;
123 [label="gini = 0.0\nsamples = 1\nvalue = [0, 0, 0 ..., 0, 0, 0]"] ;
122 -> 123 ;
124 [label="gini = 0.0\nsamples = 1\nvalue = [0, 0, 0 ..., 0, 0, 0]"] ;
122 -> 124 ;
125 [label="X[39] <= 0.045\ngini = 0.667\nsamples = 3\nvalue = [0, 0, 0 ..., 0, 0, 0]"] ;
121 -> 125 ;
126 [label="X[19] <= 373.5\ngini = 0.5\nsamples = 2\nvalue = [0, 0, 0 ..., 0, 0, 0]"] ;
125 -> 126 ;
127 [label="gini = 0.0\nsamples = 1\nvalue = [0, 0, 0 ..., 0, 0, 0]"] ;
126 -> 127 ;
128 [label="gini = 0.0\nsamples = 1\nvalue = [0, 0, 0 ..., 0, 0, 0]"] ;
126 -> 128 ;
129 [label="gini = 0.0\nsamples = 1\nvalue = [0, 0, 0 ..., 0, 0, 0]"] ;
125 -> 129 ;
130 [label="X[55] <= 0.677\ngini = 0.5\nsamples = 2\nvalue = [0, 0, 0 ..., 0, 0, 0]"] ;
118 -> 130 ;
131 [label="gini = 0.0\nsamples = 1\nvalue = [0, 0, 0 ..., 0, 0, 0]"] ;
130 -> 131 ;
132 [label="gini = 0.0\nsamples = 1\nvalue = [0, 0, 0 ..., 0, 0, 0]"] ;
130 -> 132 ;
133 [label="X[29] <= 2500.0\ngini = 0.5\nsamples = 2\nvalue = [0, 0, 0 ..., 0, 0, 0]"] ;
103 -> 133 ;
134 [label="gini = 0.0\nsamples = 1\nvalue = [0, 0, 0 ..., 0, 0, 0]"] ;
133 -> 134 ;
135 [label="gini = 0.0\nsamples = 1\nvalue = [0, 0, 0 ..., 0, 0, 0]"] ;
133 -> 135 ;
136 [label="X[8] <= 5.5\ngini = 0.72\nsamples = 5\nvalue = [0, 0, 0 ..., 0, 0, 0]"] ;
100 -> 136 ;
137 [label="gini = 0.0\nsamples = 2\nvalue = [0, 0, 0 ..., 0, 0, 0]"] ;
136 -> 137 ;
138 [label="X[23] <= 227500.0\ngini = 0.667\nsamples = 3\nvalue = [0, 0, 0 ..., 0, 0, 0]"] ;
136 -> 138 ;
139 [label="gini = 0.0\nsamples = 1\nvalue = [0, 0, 0 ..., 0, 0, 0]"] ;
138 -> 139 ;
140 [label="X[28] <= 750.0\ngini = 0.5\nsamples = 2\nvalue = [0, 0, 0 ..., 0, 0, 0]"] ;
138 -> 140 ;
141 [label="gini = 0.0\nsamples = 1\nvalue = [0, 0, 0 ..., 0, 0, 0]"] ;
140 -> 141 ;
142 [label="gini = 0.0\nsamples = 1\nvalue = [0, 0, 0 ..., 0, 0, 0]"] ;
140 -> 142 ;
143 [label="X[38] <= 0.162\ngini = 0.444\nsamples = 3\nvalue = [0, 0, 0 ..., 0, 0, 0]"] ;
99 -> 143 ;
144 [label="gini = 0.0\nsamples = 2\nvalue = [0, 0, 0 ..., 0, 0, 0]"] ;
143 -> 144 ;
145 [label="gini = 0.0\nsamples = 1\nvalue = [0, 0, 0 ..., 0, 0, 0]"] ;
143 -> 145 ;
146 [label="X[24] <= 979.486\ngini = 0.667\nsamples = 6\nvalue = [0, 0, 0 ..., 0, 0, 0]"] ;
98 -> 146 ;
147 [label="gini = 0.0\nsamples = 3\nvalue = [0, 0, 0 ..., 0, 0, 0]"] ;
146 -> 147 ;
148 [label="X[8] <= 11.0\ngini = 0.667\nsamples = 3\nvalue = [0, 0, 0 ..., 0, 0, 0]"] ;
146 -> 148 ;
149 [label="X[38] <= 0.037\ngini = 0.5\nsamples = 2\nvalue = [0, 0, 0 ..., 0, 0, 0]"] ;
148 -> 149 ;
150 [label="gini = 0.0\nsamples = 1\nvalue = [0, 0, 0 ..., 0, 0, 0]"] ;
149 -> 150 ;
151 [label="gini = 0.0\nsamples = 1\nvalue = [0, 0, 0 ..., 0, 0, 0]"] ;
149 -> 151 ;
152 [label="gini = 0.0\nsamples = 1\nvalue = [0, 0, 0 ..., 0, 0, 0]"] ;
148 -> 152 ;
153 [label="X[26] <= 2252.345\ngini = 0.56\nsamples = 5\nvalue = [0, 0, 0 ..., 0, 0, 0]"] ;
97 -> 153 ;
154 [label="X[20] <= 386.917\ngini = 0.5\nsamples = 2\nvalue = [0, 0, 0 ..., 0, 0, 0]"] ;
153 -> 154 ;
155 [label="gini = 0.0\nsamples = 1\nvalue = [0, 0, 0 ..., 0, 0, 0]"] ;
154 -> 155 ;
156 [label="gini = 0.0\nsamples = 1\nvalue = [0, 0, 0 ..., 0, 0, 0]"] ;
154 -> 156 ;
157 [label="gini = 0.0\nsamples = 3\nvalue = [0, 0, 0 ..., 0, 0, 0]"] ;
153 -> 157 ;
158 [label="X[1] <= 12.5\ngini = 0.776\nsamples = 14\nvalue = [0, 0, 0 ..., 0, 0, 0]"] ;
6 -> 158 ;
159 [label="X[42] <= 0.04\ngini = 0.519\nsamples = 9\nvalue = [0, 0, 0 ..., 0, 0, 0]"] ;
158 -> 159 ;
160 [label="X[27] <= 110150.0\ngini = 0.245\nsamples = 7\nvalue = [0, 0, 0 ..., 0, 0, 0]"] ;
159 -> 160 ;
161 [label="gini = 0.0\nsamples = 6\nvalue = [0, 0, 0 ..., 0, 0, 0]"] ;
160 -> 161 ;
162 [label="gini = 0.0\nsamples = 1\nvalue = [0, 0, 0 ..., 0, 0, 0]"] ;
160 -> 162 ;
163 [label="X[50] <= 0.042\ngini = 0.5\nsamples = 2\nvalue = [0, 0, 0 ..., 0, 0, 0]"] ;
159 -> 163 ;
164 [label="gini = 0.0\nsamples = 1\nvalue = [0, 0, 0 ..., 0, 0, 0]"] ;
163 -> 164 ;
165 [label="gini = 0.0\nsamples = 1\nvalue = [0, 0, 0 ..., 0, 0, 0]"] ;
163 -> 165 ;
166 [label="X[1] <= 13.5\ngini = 0.8\nsamples = 5\nvalue = [0, 0, 0 ..., 0, 0, 0]"] ;
158 -> 166 ;
167 [label="X[50] <= 0.081\ngini = 0.5\nsamples = 2\nvalue = [0, 0, 0 ..., 0, 0, 0]"] ;
166 -> 167 ;
168 [label="gini = 0.0\nsamples = 1\nvalue = [0, 0, 0 ..., 0, 0, 0]"] ;
167 -> 168 ;
169 [label="gini = 0.0\nsamples = 1\nvalue = [0, 0, 0 ..., 0, 0, 0]"] ;
167 -> 169 ;
170 [label="X[40] <= 0.031\ngini = 0.667\nsamples = 3\nvalue = [0, 0, 0 ..., 0, 0, 0]"] ;
166 -> 170 ;
171 [label="gini = 0.0\nsamples = 1\nvalue = [0, 0, 0 ..., 0, 0, 0]"] ;
170 -> 171 ;
172 [label="X[55] <= 0.262\ngini = 0.5\nsamples = 2\nvalue = [0, 0, 0 ..., 0, 0, 0]"] ;
170 -> 172 ;
173 [label="gini = 0.0\nsamples = 1\nvalue = [0, 0, 0 ..., 0, 0, 0]"] ;
172 -> 173 ;
174 [label="gini = 0.0\nsamples = 1\nvalue = [0, 0, 0 ..., 0, 0, 0]"] ;
172 -> 174 ;
175 [label="X[10] <= 4.815\ngini = 0.982\nsamples = 2808\nvalue = [1, 0, 0 ..., 0, 0, 0]"] ;
5 -> 175 ;
176 [label="X[45] <= 0.024\ngini = 0.981\nsamples = 1628\nvalue = [1, 0, 0 ..., 0, 0, 0]"] ;
175 -> 176 ;
177 [label="X[2] <= 1058.5\ngini = 0.978\nsamples = 326\nvalue = [0, 0, 0 ..., 0, 0, 0]"] ;
176 -> 177 ;
178 [label="X[43] <= 0.365\ngini = 0.981\nsamples = 288\nvalue = [0, 0, 0 ..., 0, 0, 0]"] ;
177 -> 178 ;
179 [label="X[24] <= 2194.275\ngini = 0.974\nsamples = 126\nvalue = [0, 0, 0 ..., 0, 0, 0]"] ;
178 -> 179 ;
180 [label="X[21] <= 104550.0\ngini = 0.978\nsamples = 123\nvalue = [0, 0, 0 ..., 0, 0, 0]"] ;
179 -> 180 ;
181 [label="X[43] <= 0.36\ngini = 0.979\nsamples = 121\nvalue = [0, 0, 0 ..., 0, 0, 0]"] ;
180 -> 181 ;
182 [label="X[0] <= 18.0\ngini = 0.981\nsamples = 115\nvalue = [0, 0, 0 ..., 0, 0, 0]"] ;
181 -> 182 ;
183 [label="gini = 0.0\nsamples = 2\nvalue = [0, 0, 0 ..., 0, 0, 0]"] ;
182 -> 183 ;
184 [label="X[46] <= 0.005\ngini = 0.981\nsamples = 113\nvalue = [0, 0, 0 ..., 0, 0, 0]"] ;
182 -> 184 ;
185 [label="X[28] <= 1453.0\ngini = 0.444\nsamples = 3\nvalue = [0, 0, 0 ..., 0, 0, 0]"] ;
184 -> 185 ;
186 [label="gini = 0.0\nsamples = 1\nvalue = [0, 0, 0 ..., 0, 0, 0]"] ;
185 -> 186 ;
187 [label="gini = 0.0\nsamples = 2\nvalue = [0, 0, 0 ..., 0, 0, 0]"] ;
185 -> 187 ;
188 [label="X[39] <= 0.817\ngini = 0.982\nsamples = 110\nvalue = [0, 0, 0 ..., 0, 0, 0]"] ;
184 -> 188 ;
189 [label="X[43] <= 0.307\ngini = 0.983\nsamples = 106\nvalue = [0, 0, 0 ..., 0, 0, 0]"] ;
188 -> 189 ;
190 [label="X[44] <= -0.013\ngini = 0.958\nsamples = 42\nvalue = [0, 0, 0 ..., 0, 0, 0]"] ;
189 -> 190 ;
191 [label="X[38] <= 0.033\ngini = 0.82\nsamples = 16\nvalue = [0, 0, 0 ..., 0, 0, 0]"] ;
190 -> 191 ;
192 [label="X[42] <= 0.031\ngini = 0.9\nsamples = 10\nvalue = [0, 0, 0 ..., 0, 0, 0]"] ;
191 -> 192 ;
193 [label="gini = 0.0\nsamples = 1\nvalue = [0, 0, 0 ..., 0, 0, 0]"] ;
192 -> 193 ;
194 [label="X[51] <= 0.243\ngini = 0.889\nsamples = 9\nvalue = [0, 0, 0 ..., 0, 0, 0]"] ;
192 -> 194 ;
195 [label="gini = 0.0\nsamples = 1\nvalue = [0, 0, 0 ..., 0, 0, 0]"] ;
194 -> 195 ;
196 [label="X[40] <= 0.438\ngini = 0.875\nsamples = 8\nvalue = [0, 0, 0 ..., 0, 0, 0]"] ;
194 -> 196 ;
197 [label="gini = 0.0\nsamples = 1\nvalue = [0, 0, 0 ..., 0, 0, 0]"] ;
196 -> 197 ;
198 [label="X[10] <= 4.419\ngini = 0.857\nsamples = 7\nvalue = [0, 0, 0 ..., 0, 0, 0]"] ;
196 -> 198 ;
199 [label="gini = 0.0\nsamples = 1\nvalue = [0, 0, 0 ..., 0, 0, 0]"] ;
198 -> 199 ;
200 [label="X[2] <= 229.0\ngini = 0.833\nsamples = 6\nvalue = [0, 0, 0 ..., 0, 0, 0]"] ;
198 -> 200 ;
201 [label="gini = 0.0\nsamples = 1\nvalue = [0, 0, 0 ..., 0, 0, 0]"] ;
200 -> 201 ;
202 [label="X[23] <= 151112.5\ngini = 0.8\nsamples = 5\nvalue = [0, 0, 0 ..., 0, 0, 0]"] ;
200 -> 202 ;
203 [label="gini = 0.0\nsamples = 1\nvalue = [0, 0, 0 ..., 0, 0, 0]"] ;
202 -> 203 ;
204 [label="X[58] <= 0.078\ngini = 0.75\nsamples = 4\nvalue = [0, 0, 0 ..., 0, 0, 0]"] ;
202 -> 204 ;
205 [label="X[44] <= -0.029\ngini = 0.5\nsamples = 2\nvalue = [0, 0, 0 ..., 0, 0, 0]"] ;
204 -> 205 ;
206 [label="gini = 0.0\nsamples = 1\nvalue = [0, 0, 0 ..., 0, 0, 0]"] ;
205 -> 206 ;
207 [label="gini = 0.0\nsamples = 1\nvalue = [0, 0, 0 ..., 0, 0, 0]"] ;
205 -> 207 ;
208 [label="X[10] <= 4.75\ngini = 0.5\nsamples = 2\nvalue = [0, 0, 0 ..., 0, 0, 0]"] ;
204 -> 208 ;
209 [label="gini = 0.0\nsamples = 1\nvalue = [0, 0, 0 ..., 0, 0, 0]"] ;
208 -> 209 ;
210 [label="gini = 0.0\nsamples = 1\nvalue = [0, 0, 0 ..., 0, 0, 0]"] ;
208 -> 210 ;
211 [label="X[42] <= 0.053\ngini = 0.278\nsamples = 6\nvalue = [0, 0, 0 ..., 0, 0, 0]"] ;
191 -> 211 ;
212 [label="gini = 0.0\nsamples = 1\nvalue = [0, 0, 0 ..., 0, 0, 0]"] ;
211 -> 212 ;
213 [label="gini = 0.0\nsamples = 5\nvalue = [0, 0, 0 ..., 0, 0, 0]"] ;
211 -> 213 ;
214 [label="X[20] <= 275.914\ngini = 0.959\nsamples = 26\nvalue = [0, 0, 0 ..., 0, 0, 0]"] ;
190 -> 214 ;
215 [label="X[58] <= 0.031\ngini = 0.955\nsamples = 22\nvalue = [0, 0, 0 ..., 0, 0, 0]"] ;
214 -> 215 ;
216 [label="X[13] <= 0.5\ngini = 0.929\nsamples = 14\nvalue = [0, 0, 0 ..., 0, 0, 0]"] ;
215 -> 216 ;
217 [label="X[9] <= 0.5\ngini = 0.917\nsamples = 12\nvalue = [0, 0, 0 ..., 0, 0, 0]"] ;
216 -> 217 ;
218 [label="X[27] <= 343.0\ngini = 0.9\nsamples = 10\nvalue = [0, 0, 0 ..., 0, 0, 0]"] ;
217 -> 218 ;
219 [label="X[48] <= 0.544\ngini = 0.5\nsamples = 2\nvalue = [0, 0, 0 ..., 0, 0, 0]"] ;
218 -> 219 ;
220 [label="gini = 0.0\nsamples = 1\nvalue = [0, 0, 0 ..., 0, 0, 0]"] ;
219 -> 220 ;
221 [label="gini = 0.0\nsamples = 1\nvalue = [0, 0, 0 ..., 0, 0, 0]"] ;
219 -> 221 ;
222 [label="X[49] <= 0.239\ngini = 0.875\nsamples = 8\nvalue = [0, 0, 0 ..., 0, 0, 0]"] ;
218 -> 222 ;
223 [label="gini = 0.0\nsamples = 1\nvalue = [0, 0, 0 ..., 0, 0, 0]"] ;
222 -> 223 ;
224 [label="X[20] <= 51.083\ngini = 0.857\nsamples = 7\nvalue = [0, 0, 0 ..., 0, 0, 0]"] ;
222 -> 224 ;
225 [label="gini = 0.0\nsamples = 1\nvalue = [0, 0, 0 ..., 0, 0, 0]"] ;
224 -> 225 ;
226 [label="X[54] <= -0.075\ngini = 0.833\nsamples = 6\nvalue = [0, 0, 0 ..., 0, 0, 0]"] ;
224 -> 226 ;
227 [label="X[32] <= 0.5\ngini = 0.75\nsamples = 4\nvalue = [0, 0, 0 ..., 0, 0, 0]"] ;
226 -> 227 ;
228 [label="X[29] <= 993.75\ngini = 0.667\nsamples = 3\nvalue = [0, 0, 0 ..., 0, 0, 0]"] ;
227 -> 228 ;
229 [label="gini = 0.0\nsamples = 1\nvalue = [0, 0, 0 ..., 0, 0, 0]"] ;
228 -> 229 ;
230 [label="X[38] <= 0.035\ngini = 0.5\nsamples = 2\nvalue = [0, 0, 0 ..., 0, 0, 0]"] ;
228 -> 230 ;
231 [label="gini = 0.0\nsamples = 1\nvalue = [0, 0, 0 ..., 0, 0, 0]"] ;
230 -> 231 ;
232 [label="gini = 0.0\nsamples = 1\nvalue = [0, 0, 0 ..., 0, 0, 0]"] ;
230 -> 232 ;
233 [label="gini = 0.0\nsamples = 1\nvalue = [0, 0, 0 ..., 0, 0, 0]"] ;
227 -> 233 ;
234 [label="X[8] <= 1.5\ngini = 0.5\nsamples = 2\nvalue = [0, 0, 0 ..., 0, 0, 0]"] ;
226 -> 234 ;
235 [label="gini = 0.0\nsamples = 1\nvalue = [0, 0, 0 ..., 0, 0, 0]"] ;
234 -> 235 ;
236 [label="gini = 0.0\nsamples = 1\nvalue = [0, 0, 0 ..., 0, 0, 0]"] ;
234 -> 236 ;
237 [label="X[28] <= 4350.0\ngini = 0.5\nsamples = 2\nvalue = [0, 0, 0 ..., 0, 0, 0]"] ;
217 -> 237 ;
238 [label="gini = 0.0\nsamples = 1\nvalue = [0, 0, 0 ..., 0, 0, 0]"] ;
237 -> 238 ;
239 [label="gini = 0.0\nsamples = 1\nvalue = [0, 0, 0 ..., 0, 0, 0]"] ;
237 -> 239 ;
240 [label="X[6] <= 1.5\ngini = 0.5\nsamples = 2\nvalue = [0, 0, 0 ..., 0, 0, 0]"] ;
216 -> 240 ;
241 [label="gini = 0.0\nsamples = 1\nvalue = [0, 0, 0 ..., 0, 0, 0]"] ;
240 -> 241 ;
242 [label="gini = 0.0\nsamples = 1\nvalue = [0, 0, 0 ..., 0, 0, 0]"] ;
240 -> 242 ;
243 [label="X[7] <= 0.5\ngini = 0.875\nsamples = 8\nvalue = [0, 0, 0 ..., 0, 0, 0]"] ;
215 -> 243 ;
244 [label="gini = 0.0\nsamples = 1\nvalue = [0, 0, 0 ..., 0, 0, 0]"] ;
243 -> 244 ;
245 [label="X[50] <= 0.067\ngini = 0.857\nsamples = 7\nvalue = [0, 0, 0 ..., 0, 0, 0]"] ;
243 -> 245 ;
246 [label="gini = 0.0\nsamples = 1\nvalue = [0, 0, 0 ..., 0, 0, 0]"] ;
245 -> 246 ;
247 [label="X[30] <= 0.5\ngini = 0.833\nsamples = 6\nvalue = [0, 0, 0 ..., 0, 0, 0]"] ;
245 -> 247 ;
248 [label="X[9] <= 0.5\ngini = 0.8\nsamples = 5\nvalue = [0, 0, 0 ..., 0, 0, 0]"] ;
247 -> 248 ;
249 [label="X[48] <= 0.433\ngini = 0.667\nsamples = 3\nvalue = [0, 0, 0 ..., 0, 0, 0]"] ;
248 -> 249 ;
250 [label="gini = 0.0\nsamples = 1\nvalue = [0, 0, 0 ..., 0, 0, 0]"] ;
249 -> 250 ;
251 [label="X[51] <= 0.6\ngini = 0.5\nsamples = 2\nvalue = [0, 0, 0 ..., 0, 0, 0]"] ;
249 -> 251 ;
252 [label="gini = 0.0\nsamples = 1\nvalue = [0, 0, 0 ..., 0, 0, 0]"] ;
251 -> 252 ;
253 [label="gini = 0.0\nsamples = 1\nvalue = [0, 0, 0 ..., 0, 0, 0]"] ;
251 -> 253 ;
254 [label="X[19] <= 264.5\ngini = 0.5\nsamples = 2\nvalue = [0, 0, 0 ..., 0, 0, 0]"] ;
248 -> 254 ;
255 [label="gini = 0.0\nsamples = 1\nvalue = [0, 0, 0 ..., 0, 0, 0]"] ;
254 -> 255 ;
256 [label="gini = 0.0\nsamples = 1\nvalue = [0, 0, 0 ..., 0, 0, 0]"] ;
254 -> 256 ;
257 [label="gini = 0.0\nsamples = 1\nvalue = [0, 0, 0 ..., 0, 0, 0]"] ;
247 -> 257 ;
258 [label="X[45] <= 0.017\ngini = 0.625\nsamples = 4\nvalue = [0, 0, 0 ..., 0, 0, 0]"] ;
214 -> 258 ;
259 [label="gini = 0.0\nsamples = 2\nvalue = [0, 0, 0 ..., 0, 0, 0]"] ;
258 -> 259 ;
260 [label="X[42] <= 0.033\ngini = 0.5\nsamples = 2\nvalue = [0, 0, 0 ..., 0, 0, 0]"] ;
258 -> 260 ;
261 [label="gini = 0.0\nsamples = 1\nvalue = [0, 0, 0 ..., 0, 0, 0]"] ;
260 -> 261 ;
262 [label="gini = 0.0\nsamples = 1\nvalue = [0, 0, 0 ..., 0, 0, 0]"] ;
260 -> 262 ;
263 [label="X[24] <= 2153.365\ngini = 0.978\nsamples = 64\nvalue = [0, 0, 0 ..., 0, 0, 0]"] ;
189 -> 263 ;
264 [label="X[23] <= 264137.5\ngini = 0.977\nsamples = 61\nvalue = [0, 0, 0 ..., 0, 0, 0]"] ;
263 -> 264 ;
265 [label="X[24] <= 1419.567\ngini = 0.967\nsamples = 38\nvalue = [0, 0, 0 ..., 0, 0, 0]"] ;
264 -> 265 ;
266 [label="X[40] <= 0.823\ngini = 0.964\nsamples = 34\nvalue = [0, 0, 0 ..., 0, 0, 0]"] ;
265 -> 266 ;
267 [label="X[39] <= 0.02\ngini = 0.952\nsamples = 21\nvalue = [0, 0, 0 ..., 0, 0, 0]"] ;
266 -> 267 ;
268 [label="gini = 0.0\nsamples = 1\nvalue = [0, 0, 0 ..., 0, 0, 0]"] ;
267 -> 268 ;
269 [label="X[2] <= 213.5\ngini = 0.95\nsamples = 20\nvalue = [0, 0, 0 ..., 0, 0, 0]"] ;
267 -> 269 ;
270 [label="gini = 0.0\nsamples = 1\nvalue = [0, 0, 0 ..., 0, 0, 0]"] ;
269 -> 270 ;
271 [label="X[13] <= 0.5\ngini = 0.947\nsamples = 19\nvalue = [0, 0, 0 ..., 0, 0, 0]"] ;
269 -> 271 ;
272 [label="X[51] <= 0.55\ngini = 0.933\nsamples = 15\nvalue = [0, 0, 0 ..., 0, 0, 0]"] ;
271 -> 272 ;
273 [label="X[30] <= 0.5\ngini = 0.9\nsamples = 10\nvalue = [0, 0, 0 ..., 0, 0, 0]"] ;
272 -> 273 ;
274 [label="X[50] <= 0.075\ngini = 0.857\nsamples = 7\nvalue = [0, 0, 0 ..., 0, 0, 0]"] ;
273 -> 274 ;
275 [label="gini = 0.0\nsamples = 1\nvalue = [0, 0, 0 ..., 0, 0, 0]"] ;
274 -> 275 ;
276 [label="X[52] <= -0.257\ngini = 0.833\nsamples = 6\nvalue = [0, 0, 0 ..., 0, 0, 0]"] ;
274 -> 276 ;
277 [label="gini = 0.0\nsamples = 1\nvalue = [0, 0, 0 ..., 0, 0, 0]"] ;
276 -> 277 ;
278 [label="X[5] <= 0.599\ngini = 0.8\nsamples = 5\nvalue = [0, 0, 0 ..., 0, 0, 0]"] ;
276 -> 278 ;
279 [label="gini = 0.0\nsamples = 1\nvalue = [0, 0, 0 ..., 0, 0, 0]"] ;
278 -> 279 ;
280 [label="X[47] <= 0.558\ngini = 0.75\nsamples = 4\nvalue = [0, 0, 0 ..., 0, 0, 0]"] ;
278 -> 280 ;
281 [label="gini = 0.0\nsamples = 1\nvalue = [0, 0, 0 ..., 0, 0, 0]"] ;
280 -> 281 ;
282 [label="X[33] <= 0.5\ngini = 0.667\nsamples = 3\nvalue = [0, 0, 0 ..., 0, 0, 0]"] ;
280 -> 282 ;
283 [label="X[41] <= 0.024\ngini = 0.5\nsamples = 2\nvalue = [0, 0, 0 ..., 0, 0, 0]"] ;
282 -> 283 ;
284 [label="gini = 0.0\nsamples = 1\nvalue = [0, 0, 0 ..., 0, 0, 0]"] ;
283 -> 284 ;
285 [label="gini = 0.0\nsamples = 1\nvalue = [0, 0, 0 ..., 0, 0, 0]"] ;
283 -> 285 ;
286 [label="gini = 0.0\nsamples = 1\nvalue = [0, 0, 0 ..., 0, 0, 0]"] ;
282 -> 286 ;
287 [label="X[7] <= 1.5\ngini = 0.667\nsamples = 3\nvalue = [0, 0, 0 ..., 0, 0, 0]"] ;
273 -> 287 ;
288 [label="gini = 0.0\nsamples = 1\nvalue = [0, 0, 0 ..., 0, 0, 0]"] ;
287 -> 288 ;
289 [label="X[0] <= 185.0\ngini = 0.5\nsamples = 2\nvalue = [0, 0, 0 ..., 0, 0, 0]"] ;
287 -> 289 ;
290 [label="gini = 0.0\nsamples = 1\nvalue = [0, 0, 0 ..., 0, 0, 0]"] ;
289 -> 290 ;
291 [label="gini = 0.0\nsamples = 1\nvalue = [0, 0, 0 ..., 0, 0, 0]"] ;
289 -> 291 ;
292 [label="X[5] <= 0.608\ngini = 0.8\nsamples = 5\nvalue = [0, 0, 0 ..., 0, 0, 0]"] ;
272 -> 292 ;
293 [label="gini = 0.0\nsamples = 1\nvalue = [0, 0, 0 ..., 0, 0, 0]"] ;
292 -> 293 ;
294 [label="X[31] <= 0.5\ngini = 0.75\nsamples = 4\nvalue = [0, 0, 0 ..., 0, 0, 0]"] ;
292 -> 294 ;
295 [label="X[44] <= 0.007\ngini = 0.667\nsamples = 3\nvalue = [0, 0, 0 ..., 0, 0, 0]"] ;
294 -> 295 ;
296 [label="gini = 0.0\nsamples = 1\nvalue = [0, 0, 0 ..., 0, 0, 0]"] ;
295 -> 296 ;
297 [label="X[39] <= 0.412\ngini = 0.5\nsamples = 2\nvalue = [0, 0, 0 ..., 0, 0, 0]"] ;
295 -> 297 ;
298 [label="gini = 0.0\nsamples = 1\nvalue = [0, 0, 0 ..., 0, 0, 0]"] ;
297 -> 298 ;
299 [label="gini = 0.0\nsamples = 1\nvalue = [0, 0, 0 ..., 0, 0, 0]"] ;
297 -> 299 ;
300 [label="gini = 0.0\nsamples = 1\nvalue = [0, 0, 0 ..., 0, 0, 0]"] ;
294 -> 300 ;
301 [label="X[7] <= 2.5\ngini = 0.75\nsamples = 4\nvalue = [0, 0, 0 ..., 0, 0, 0]"] ;
271 -> 301 ;
302 [label="gini = 0.0\nsamples = 1\nvalue = [0, 0, 0 ..., 0, 0, 0]"] ;
301 -> 302 ;
303 [label="X[5] <= 0.649\ngini = 0.667\nsamples = 3\nvalue = [0, 0, 0 ..., 0, 0, 0]"] ;
301 -> 303 ;
304 [label="gini = 0.0\nsamples = 1\nvalue = [0, 0, 0 ..., 0, 0, 0]"] ;
303 -> 304 ;
305 [label="X[52] <= -0.216\ngini = 0.5\nsamples = 2\nvalue = [0, 0, 0 ..., 0, 0, 0]"] ;
303 -> 305 ;
306 [label="gini = 0.0\nsamples = 1\nvalue = [0, 0, 0 ..., 0, 0, 0]"] ;
305 -> 306 ;
307 [label="gini = 0.0\nsamples = 1\nvalue = [0, 0, 0 ..., 0, 0, 0]"] ;
305 -> 307 ;
308 [label="X[51] <= 0.55\ngini = 0.876\nsamples = 13\nvalue = [0, 0, 0 ..., 0, 0, 0]"] ;
266 -> 308 ;
309 [label="X[3] <= 0.561\ngini = 0.735\nsamples = 7\nvalue = [0, 0, 0 ..., 0, 0, 0]"] ;
308 -> 309 ;
310 [label="X[8] <= 1.5\ngini = 0.375\nsamples = 4\nvalue = [0, 0, 0 ..., 0, 0, 0]"] ;
309 -> 310 ;
311 [label="gini = 0.0\nsamples = 3\nvalue = [0, 0, 0 ..., 0, 0, 0]"] ;
310 -> 311 ;
312 [label="gini = 0.0\nsamples = 1\nvalue = [0, 0, 0 ..., 0, 0, 0]"] ;
310 -> 312 ;
313 [label="X[11] <= 6.5\ngini = 0.667\nsamples = 3\nvalue = [0, 0, 0 ..., 0, 0, 0]"] ;
309 -> 313 ;
314 [label="gini = 0.0\nsamples = 1\nvalue = [0, 0, 0 ..., 0, 0, 0]"] ;
313 -> 314 ;
315 [label="X[55] <= 0.05\ngini = 0.5\nsamples = 2\nvalue = [0, 0, 0 ..., 0, 0, 0]"] ;
313 -> 315 ;
316 [label="gini = 0.0\nsamples = 1\nvalue = [0, 0, 0 ..., 0, 0, 0]"] ;
315 -> 316 ;
317 [label="gini = 0.0\nsamples = 1\nvalue = [0, 0, 0 ..., 0, 0, 0]"] ;
315 -> 317 ;
318 [label="X[23] <= 212940.0\ngini = 0.778\nsamples = 6\nvalue = [0, 0, 0 ..., 0, 0, 0]"] ;
308 -> 318 ;
319 [label="gini = 0.0\nsamples = 2\nvalue = [0, 0, 0 ..., 0, 0, 0]"] ;
318 -> 319 ;
320 [label="X[20] <= 44.0\ngini = 0.75\nsamples = 4\nvalue = [0, 0, 0 ..., 0, 0, 0]"] ;
318 -> 320 ;
321 [label="gini = 0.0\nsamples = 1\nvalue = [0, 0, 0 ..., 0, 0, 0]"] ;
320 -> 321 ;
322 [label="X[41] <= 0.031\ngini = 0.667\nsamples = 3\nvalue = [0, 0, 0 ..., 0, 0, 0]"] ;
320 -> 322 ;
323 [label="X[43] <= 0.336\ngini = 0.5\nsamples = 2\nvalue = [0, 0, 0 ..., 0, 0, 0]"] ;
322 -> 323 ;
324 [label="gini = 0.0\nsamples = 1\nvalue = [0, 0, 0 ..., 0, 0, 0]"] ;
323 -> 324 ;
325 [label="gini = 0.0\nsamples = 1\nvalue = [0, 0, 0 ..., 0, 0, 0]"] ;
323 -> 325 ;
326 [label="gini = 0.0\nsamples = 1\nvalue = [0, 0, 0 ..., 0, 0, 0]"] ;
322 -> 326 ;
327 [label="X[0] <= 155.5\ngini = 0.625\nsamples = 4\nvalue = [0, 0, 0 ..., 0, 0, 0]"] ;
265 -> 327 ;
328 [label="X[58] <= 0.125\ngini = 0.5\nsamples = 2\nvalue = [0, 0, 0 ..., 0, 0, 0]"] ;
327 -> 328 ;
329 [label="gini = 0.0\nsamples = 1\nvalue = [0, 0, 0 ..., 0, 0, 0]"] ;
328 -> 329 ;
330 [label="gini = 0.0\nsamples = 1\nvalue = [0, 0, 0 ..., 0, 0, 0]"] ;
328 -> 330 ;
331 [label="gini = 0.0\nsamples = 2\nvalue = [0, 0, 0 ..., 0, 0, 0]"] ;
327 -> 331 ;
332 [label="X[42] <= 0.196\ngini = 0.934\nsamples = 23\nvalue = [0, 0, 0 ..., 0, 0, 0]"] ;
264 -> 332 ;
333 [label="X[49] <= 0.133\ngini = 0.95\nsamples = 20\nvalue = [0, 0, 0 ..., 0, 0, 0]"] ;
332 -> 333 ;
334 [label="gini = 0.0\nsamples = 1\nvalue = [0, 0, 0 ..., 0, 0, 0]"] ;
333 -> 334 ;
335 [label="X[43] <= 0.309\ngini = 0.947\nsamples = 19\nvalue = [0, 0, 0 ..., 0, 0, 0]"] ;
333 -> 335 ;
336 [label="gini = 0.0\nsamples = 1\nvalue = [0, 0, 0 ..., 0, 0, 0]"] ;
335 -> 336 ;
337 [label="X[34] <= 0.5\ngini = 0.944\nsamples = 18\nvalue = [0, 0, 0 ..., 0, 0, 0]"] ;
335 -> 337 ;
338 [label="X[42] <= 0.029\ngini = 0.909\nsamples = 11\nvalue = [0, 0, 0 ..., 0, 0, 0]"] ;
337 -> 338 ;
339 [label="gini = 0.0\nsamples = 1\nvalue = [0, 0, 0 ..., 0, 0, 0]"] ;
338 -> 339 ;
340 [label="X[51] <= 0.148\ngini = 0.9\nsamples = 10\nvalue = [0, 0, 0 ..., 0, 0, 0]"] ;
338 -> 340 ;
341 [label="gini = 0.0\nsamples = 1\nvalue = [0, 0, 0 ..., 0, 0, 0]"] ;
340 -> 341 ;
342 [label="X[53] <= -0.8\ngini = 0.889\nsamples = 9\nvalue = [0, 0, 0 ..., 0, 0, 0]"] ;
340 -> 342 ;
343 [label="X[8] <= 1.0\ngini = 0.5\nsamples = 2\nvalue = [0, 0, 0 ..., 0, 0, 0]"] ;
342 -> 343 ;
344 [label="gini = 0.0\nsamples = 1\nvalue = [0, 0, 0 ..., 0, 0, 0]"] ;
343 -> 344 ;
345 [label="gini = 0.0\nsamples = 1\nvalue = [0, 0, 0 ..., 0, 0, 0]"] ;
343 -> 345 ;
346 [label="X[54] <= -0.2\ngini = 0.857\nsamples = 7\nvalue = [0, 0, 0 ..., 0, 0, 0]"] ;
342 -> 346 ;
347 [label="gini = 0.0\nsamples = 1\nvalue = [0, 0, 0 ..., 0, 0, 0]"] ;
346 -> 347 ;
348 [label="X[21] <= 550.0\ngini = 0.833\nsamples = 6\nvalue = [0, 0, 0 ..., 0, 0, 0]"] ;
346 -> 348 ;
349 [label="X[9] <= 0.5\ngini = 0.667\nsamples = 3\nvalue = [0, 0, 0 ..., 0, 0, 0]"] ;
348 -> 349 ;
350 [label="gini = 0.0\nsamples = 1\nvalue = [0, 0, 0 ..., 0, 0, 0]"] ;
349 -> 350 ;
351 [label="X[32] <= 0.5\ngini = 0.5\nsamples = 2\nvalue = [0, 0, 0 ..., 0, 0, 0]"] ;
349 -> 351 ;
352 [label="gini = 0.0\nsamples = 1\nvalue = [0, 0, 0 ..., 0, 0, 0]"] ;
351 -> 352 ;
353 [label="gini = 0.0\nsamples = 1\nvalue = [0, 0, 0 ..., 0, 0, 0]"] ;
351 -> 353 ;
354 [label="X[27] <= 389.5\ngini = 0.667\nsamples = 3\nvalue = [0, 0, 0 ..., 0, 0, 0]"] ;
348 -> 354 ;
355 [label="gini = 0.0\nsamples = 1\nvalue = [0, 0, 0 ..., 0, 0, 0]"] ;
354 -> 355 ;
356 [label="X[41] <= 0.099\ngini = 0.5\nsamples = 2\nvalue = [0, 0, 0 ..., 0, 0, 0]"] ;
354 -> 356 ;
357 [label="gini = 0.0\nsamples = 1\nvalue = [0, 0, 0 ..., 0, 0, 0]"] ;
356 -> 357 ;
358 [label="gini = 0.0\nsamples = 1\nvalue = [0, 0, 0 ..., 0, 0, 0]"] ;
356 -> 358 ;
359 [label="X[46] <= 0.011\ngini = 0.857\nsamples = 7\nvalue = [0, 0, 0 ..., 0, 0, 0]"] ;
337 -> 359 ;
360 [label="gini = 0.0\nsamples = 1\nvalue = [0, 0, 0 ..., 0, 0, 0]"] ;
359 -> 360 ;
361 [label="X[10] <= 4.548\ngini = 0.833\nsamples = 6\nvalue = [0, 0, 0 ..., 0, 0, 0]"] ;
359 -> 361 ;
362 [label="gini = 0.0\nsamples = 1\nvalue = [0, 0, 0 ..., 0, 0, 0]"] ;
361 -> 362 ;
363 [label="X[48] <= 0.475\ngini = 0.8\nsamples = 5\nvalue = [0, 0, 0 ..., 0, 0, 0]"] ;
361 -> 363 ;
364 [label="gini = 0.0\nsamples = 1\nvalue = [0, 0, 0 ..., 0, 0, 0]"] ;
363 -> 364 ;
365 [label="X[46] <= 0.017\ngini = 0.75\nsamples = 4\nvalue = [0, 0, 0 ..., 0, 0, 0]"] ;
363 -> 365 ;
366 [label="gini = 0.0\nsamples = 1\nvalue = [0, 0, 0 ..., 0, 0, 0]"] ;
365 -> 366 ;
367 [label="X[51] <= 0.375\ngini = 0.667\nsamples = 3\nvalue = [0, 0, 0 ..., 0, 0, 0]"] ;
365 -> 367 ;
368 [label="gini = 0.0\nsamples = 1\nvalue = [0, 0, 0 ..., 0, 0, 0]"] ;
367 -> 368 ;
369 [label="X[27] <= 1113.0\ngini = 0.5\nsamples = 2\nvalue = [0, 0, 0 ..., 0, 0, 0]"] ;
367 -> 369 ;
370 [label="gini = 0.0\nsamples = 1\nvalue = [0, 0, 0 ..., 0, 0, 0]"] ;
369 -> 370 ;
371 [label="gini = 0.0\nsamples = 1\nvalue = [0, 0, 0 ..., 0, 0, 0]"] ;
369 -> 371 ;
372 [label="gini = 0.0\nsamples = 3\nvalue = [0, 0, 0 ..., 0, 0, 0]"] ;
332 -> 372 ;
373 [label="X[0] <= 86.5\ngini = 0.444\nsamples = 3\nvalue = [0, 0, 0 ..., 0, 0, 0]"] ;
263 -> 373 ;
374 [label="gini = 0.0\nsamples = 1\nvalue = [0, 0, 0 ..., 0, 0, 0]"] ;
373 -> 374 ;
375 [label="gini = 0.0\nsamples = 2\nvalue = [0, 0, 0 ..., 0, 0, 0]"] ;
373 -> 375 ;
376 [label="X[0] <= 159.5\ngini = 0.625\nsamples = 4\nvalue = [0, 0, 0 ..., 0, 0, 0]"] ;
188 -> 376 ;
377 [label="gini = 0.0\nsamples = 2\nvalue = [0, 0, 0 ..., 0, 0, 0]"] ;
376 -> 377 ;
378 [label="X[20] <= 187.804\ngini = 0.5\nsamples = 2\nvalue = [0, 0, 0 ..., 0, 0, 0]"] ;
376 -> 378 ;
379 [label="gini = 0.0\nsamples = 1\nvalue = [0, 0, 0 ..., 0, 0, 0]"] ;
378 -> 379 ;
380 [label="gini = 0.0\nsamples = 1\nvalue = [0, 0, 0 ..., 0, 0, 0]"] ;
378 -> 380 ;
381 [label="X[48] <= 0.519\ngini = 0.667\nsamples = 6\nvalue = [0, 0, 0 ..., 0, 0, 0]"] ;
181 -> 381 ;
382 [label="X[44] <= 0.021\ngini = 0.667\nsamples = 3\nvalue = [0, 0, 0 ..., 0, 0, 0]"] ;
381 -> 382 ;
383 [label="gini = 0.0\nsamples = 1\nvalue = [0, 0, 0 ..., 0, 0, 0]"] ;
382 -> 383 ;
384 [label="X[26] <= 2532.466\ngini = 0.5\nsamples = 2\nvalue = [0, 0, 0 ..., 0, 0, 0]"] ;
382 -> 384 ;
385 [label="gini = 0.0\nsamples = 1\nvalue = [0, 0, 0 ..., 0, 0, 0]"] ;
384 -> 385 ;
386 [label="gini = 0.0\nsamples = 1\nvalue = [0, 0, 0 ..., 0, 0, 0]"] ;
384 -> 386 ;
387 [label="gini = 0.0\nsamples = 3\nvalue = [0, 0, 0 ..., 0, 0, 0]"] ;
381 -> 387 ;
388 [label="gini = 0.0\nsamples = 2\nvalue = [0, 0, 0 ..., 0, 0, 0]"] ;
180 -> 388 ;
389 [label="gini = 0.0\nsamples = 3\nvalue = [0, 0, 0 ..., 0, 0, 0]"] ;
179 -> 389 ;
390 [label="X[6] <= 28.5\ngini = 0.974\nsamples = 162\nvalue = [0, 0, 0 ..., 0, 0, 0]"] ;
178 -> 390 ;
391 [label="X[43] <= 0.606\ngini = 0.974\nsamples = 160\nvalue = [0, 0, 0 ..., 0, 0, 0]"] ;
390 -> 391 ;
392 [label="X[29] <= 34766.664\ngini = 0.974\nsamples = 158\nvalue = [0, 0, 0 ..., 0, 0, 0]"] ;
391 -> 392 ;
393 [label="X[49] <= 0.235\ngini = 0.976\nsamples = 156\nvalue = [0, 0, 0 ..., 0, 0, 0]"] ;
392 -> 393 ;
394 [label="X[52] <= -0.351\ngini = 0.885\nsamples = 24\nvalue = [0, 0, 0 ..., 0, 0, 0]"] ;
393 -> 394 ;
395 [label="X[51] <= 0.325\ngini = 0.449\nsamples = 7\nvalue = [0, 0, 0 ..., 0, 0, 0]"] ;
394 -> 395 ;
396 [label="X[43] <= 0.437\ngini = 0.5\nsamples = 2\nvalue = [0, 0, 0 ..., 0, 0, 0]"] ;
395 -> 396 ;
397 [label="gini = 0.0\nsamples = 1\nvalue = [0, 0, 0 ..., 0, 0, 0]"] ;
396 -> 397 ;
398 [label="gini = 0.0\nsamples = 1\nvalue = [0, 0, 0 ..., 0, 0, 0]"] ;
396 -> 398 ;
399 [label="gini = 0.0\nsamples = 5\nvalue = [0, 0, 0 ..., 0, 0, 0]"] ;
395 -> 399 ;
400 [label="X[43] <= 0.408\ngini = 0.9\nsamples = 17\nvalue = [0, 0, 0 ..., 0, 0, 0]"] ;
394 -> 400 ;
401 [label="X[10] <= 4.743\ngini = 0.5\nsamples = 6\nvalue = [0, 0, 0 ..., 0, 0, 0]"] ;
400 -> 401 ;
402 [label="gini = 0.0\nsamples = 4\nvalue = [0, 0, 0 ..., 0, 0, 0]"] ;
401 -> 402 ;
403 [label="X[52] <= -0.243\ngini = 0.5\nsamples = 2\nvalue = [0, 0, 0 ..., 0, 0, 0]"] ;
401 -> 403 ;
404 [label="gini = 0.0\nsamples = 1\nvalue = [0, 0, 0 ..., 0, 0, 0]"] ;
403 -> 404 ;
405 [label="gini = 0.0\nsamples = 1\nvalue = [0, 0, 0 ..., 0, 0, 0]"] ;
403 -> 405 ;
406 [label="X[45] <= 0.012\ngini = 0.909\nsamples = 11\nvalue = [0, 0, 0 ..., 0, 0, 0]"] ;
400 -> 406 ;
407 [label="gini = 0.0\nsamples = 1\nvalue = [0, 0, 0 ..., 0, 0, 0]"] ;
406 -> 407 ;
408 [label="X[38] <= 0.023\ngini = 0.9\nsamples = 10\nvalue = [0, 0, 0 ..., 0, 0, 0]"] ;
406 -> 408 ;
409 [label="gini = 0.0\nsamples = 1\nvalue = [0, 0, 0 ..., 0, 0, 0]"] ;
408 -> 409 ;
410 [label="X[49] <= 0.143\ngini = 0.889\nsamples = 9\nvalue = [0, 0, 0 ..., 0, 0, 0]"] ;
408 -> 410 ;
411 [label="gini = 0.0\nsamples = 1\nvalue = [0, 0, 0 ..., 0, 0, 0]"] ;
410 -> 411 ;
412 [label="X[17] <= 0.5\ngini = 0.875\nsamples = 8\nvalue = [0, 0, 0 ..., 0, 0, 0]"] ;
410 -> 412 ;
413 [label="X[47] <= 0.442\ngini = 0.5\nsamples = 2\nvalue = [0, 0, 0 ..., 0, 0, 0]"] ;
412 -> 413 ;
414 [label="gini = 0.0\nsamples = 1\nvalue = [0, 0, 0 ..., 0, 0, 0]"] ;
413 -> 414 ;
415 [label="gini = 0.0\nsamples = 1\nvalue = [0, 0, 0 ..., 0, 0, 0]"] ;
413 -> 415 ;
416 [label="X[34] <= 0.5\ngini = 0.833\nsamples = 6\nvalue = [0, 0, 0 ..., 0, 0, 0]"] ;
412 -> 416 ;
417 [label="X[28] <= 1600.0\ngini = 0.75\nsamples = 4\nvalue = [0, 0, 0 ..., 0, 0, 0]"] ;
416 -> 417 ;
418 [label="gini = 0.0\nsamples = 1\nvalue = [0, 0, 0 ..., 0, 0, 0]"] ;
417 -> 418 ;
419 [label="X[50] <= 0.081\ngini = 0.667\nsamples = 3\nvalue = [0, 0, 0 ..., 0, 0, 0]"] ;
417 -> 419 ;
420 [label="gini = 0.0\nsamples = 1\nvalue = [0, 0, 0 ..., 0, 0, 0]"] ;
419 -> 420 ;
421 [label="X[46] <= 0.004\ngini = 0.5\nsamples = 2\nvalue = [0, 0, 0 ..., 0, 0, 0]"] ;
419 -> 421 ;
422 [label="gini = 0.0\nsamples = 1\nvalue = [0, 0, 0 ..., 0, 0, 0]"] ;
421 -> 422 ;
423 [label="gini = 0.0\nsamples = 1\nvalue = [0, 0, 0 ..., 0, 0, 0]"] ;
421 -> 423 ;
424 [label="X[23] <= 428283.312\ngini = 0.5\nsamples = 2\nvalue = [0, 0, 0 ..., 0, 0, 0]"] ;
416 -> 424 ;
425 [label="gini = 0.0\nsamples = 1\nvalue = [0, 0, 0 ..., 0, 0, 0]"] ;
424 -> 425 ;
426 [label="gini = 0.0\nsamples = 1\nvalue = [0, 0, 0 ..., 0, 0, 0]"] ;
424 -> 426 ;
427 [label="X[56] <= 0.525\ngini = 0.98\nsamples = 132\nvalue = [0, 0, 0 ..., 0, 0, 0]"] ;
393 -> 427 ;
428 [label="X[25] <= 3573.468\ngini = 0.981\nsamples = 129\nvalue = [0, 0, 0 ..., 0, 0, 0]"] ;
427 -> 428 ;
429 [label="X[23] <= 376450.0\ngini = 0.971\nsamples = 45\nvalue = [0, 0, 0 ..., 0, 0, 0]"] ;
428 -> 429 ;
430 [label="X[42] <= 0.027\ngini = 0.969\nsamples = 42\nvalue = [0, 0, 0 ..., 0, 0, 0]"] ;
429 -> 430 ;
431 [label="X[45] <= 0.021\ngini = 0.72\nsamples = 5\nvalue = [0, 0, 0 ..., 0, 0, 0]"] ;
430 -> 431 ;
432 [label="gini = 0.0\nsamples = 2\nvalue = [0, 0, 0 ..., 0, 0, 0]"] ;
431 -> 432 ;
433 [label="X[20] <= 198.196\ngini = 0.667\nsamples = 3\nvalue = [0, 0, 0 ..., 0, 0, 0]"] ;
431 -> 433 ;
434 [label="gini = 0.0\nsamples = 1\nvalue = [0, 0, 0 ..., 0, 0, 0]"] ;
433 -> 434 ;
435 [label="X[40] <= 0.737\ngini = 0.5\nsamples = 2\nvalue = [0, 0, 0 ..., 0, 0, 0]"] ;
433 -> 435 ;
436 [label="gini = 0.0\nsamples = 1\nvalue = [0, 0, 0 ..., 0, 0, 0]"] ;
435 -> 436 ;
437 [label="gini = 0.0\nsamples = 1\nvalue = [0, 0, 0 ..., 0, 0, 0]"] ;
435 -> 437 ;
438 [label="X[26] <= 2510.813\ngini = 0.966\nsamples = 37\nvalue = [0, 0, 0 ..., 0, 0, 0]"] ;
430 -> 438 ;
439 [label="X[2] <= 155.5\ngini = 0.963\nsamples = 27\nvalue = [0, 0, 0 ..., 0, 0, 0]"] ;
438 -> 439 ;
440 [label="gini = 0.0\nsamples = 1\nvalue = [0, 0, 0 ..., 0, 0, 0]"] ;
439 -> 440 ;
441 [label="X[57] <= 0.021\ngini = 0.962\nsamples = 26\nvalue = [0, 0, 0 ..., 0, 0, 0]"] ;
439 -> 441 ;
442 [label="X[44] <= 0.024\ngini = 0.75\nsamples = 4\nvalue = [0, 0, 0 ..., 0, 0, 0]"] ;
441 -> 442 ;
443 [label="gini = 0.0\nsamples = 1\nvalue = [0, 0, 0 ..., 0, 0, 0]"] ;
442 -> 443 ;
444 [label="X[25] <= 3421.83\ngini = 0.667\nsamples = 3\nvalue = [0, 0, 0 ..., 0, 0, 0]"] ;
442 -> 444 ;
445 [label="gini = 0.0\nsamples = 1\nvalue = [0, 0, 0 ..., 0, 0, 0]"] ;
444 -> 445 ;
446 [label="X[5] <= 0.635\ngini = 0.5\nsamples = 2\nvalue = [0, 0, 0 ..., 0, 0, 0]"] ;
444 -> 446 ;
447 [label="gini = 0.0\nsamples = 1\nvalue = [0, 0, 0 ..., 0, 0, 0]"] ;
446 -> 447 ;
448 [label="gini = 0.0\nsamples = 1\nvalue = [0, 0, 0 ..., 0, 0, 0]"] ;
446 -> 448 ;
449 [label="X[19] <= 21.0\ngini = 0.955\nsamples = 22\nvalue = [0, 0, 0 ..., 0, 0, 0]"] ;
441 -> 449 ;
450 [label="X[34] <= 0.5\ngini = 0.8\nsamples = 5\nvalue = [0, 0, 0 ..., 0, 0, 0]"] ;
449 -> 450 ;
451 [label="X[41] <= 0.031\ngini = 0.5\nsamples = 2\nvalue = [0, 0, 0 ..., 0, 0, 0]"] ;
450 -> 451 ;
452 [label="gini = 0.0\nsamples = 1\nvalue = [0, 0, 0 ..., 0, 0, 0]"] ;
451 -> 452 ;
453 [label="gini = 0.0\nsamples = 1\nvalue = [0, 0, 0 ..., 0, 0, 0]"] ;
451 -> 453 ;
454 [label="X[48] <= 0.583\ngini = 0.667\nsamples = 3\nvalue = [0, 0, 0 ..., 0, 0, 0]"] ;
450 -> 454 ;
455 [label="X[1] <= 12.5\ngini = 0.5\nsamples = 2\nvalue = [0, 0, 0 ..., 0, 0, 0]"] ;
454 -> 455 ;
456 [label="gini = 0.0\nsamples = 1\nvalue = [0, 0, 0 ..., 0, 0, 0]"] ;
455 -> 456 ;
457 [label="gini = 0.0\nsamples = 1\nvalue = [0, 0, 0 ..., 0, 0, 0]"] ;
455 -> 457 ;
458 [label="gini = 0.0\nsamples = 1\nvalue = [0, 0, 0 ..., 0, 0, 0]"] ;
454 -> 458 ;
459 [label="X[39] <= 0.026\ngini = 0.941\nsamples = 17\nvalue = [0, 0, 0 ..., 0, 0, 0]"] ;
449 -> 459 ;
460 [label="gini = 0.0\nsamples = 1\nvalue = [0, 0, 0 ..., 0, 0, 0]"] ;
459 -> 460 ;
461 [label="X[6] <= 1.5\ngini = 0.938\nsamples = 16\nvalue = [0, 0, 0 ..., 0, 0, 0]"] ;
459 -> 461 ;
462 [label="X[42] <= 0.136\ngini = 0.667\nsamples = 3\nvalue = [0, 0, 0 ..., 0, 0, 0]"] ;
461 -> 462 ;
463 [label="gini = 0.0\nsamples = 1\nvalue = [0, 0, 0 ..., 0, 0, 0]"] ;
462 -> 463 ;
464 [label="X[44] <= 0.037\ngini = 0.5\nsamples = 2\nvalue = [0, 0, 0 ..., 0, 0, 0]"] ;
462 -> 464 ;
465 [label="gini = 0.0\nsamples = 1\nvalue = [0, 0, 0 ..., 0, 0, 0]"] ;
464 -> 465 ;
466 [label="gini = 0.0\nsamples = 1\nvalue = [0, 0, 0 ..., 0, 0, 0]"] ;
464 -> 466 ;
467 [label="X[0] <= 25.5\ngini = 0.923\nsamples = 13\nvalue = [0, 0, 0 ..., 0, 0, 0]"] ;
461 -> 467 ;
468 [label="gini = 0.0\nsamples = 1\nvalue = [0, 0, 0 ..., 0, 0, 0]"] ;
467 -> 468 ;
469 [label="X[52] <= -0.5\ngini = 0.917\nsamples = 12\nvalue = [0, 0, 0 ..., 0, 0, 0]"] ;
467 -> 469 ;
470 [label="gini = 0.0\nsamples = 1\nvalue = [0, 0, 0 ..., 0, 0, 0]"] ;
469 -> 470 ;
471 [label="X[27] <= 284.0\ngini = 0.909\nsamples = 11\nvalue = [0, 0, 0 ..., 0, 0, 0]"] ;
469 -> 471 ;
472 [label="gini = 0.0\nsamples = 1\nvalue = [0, 0, 0 ..., 0, 0, 0]"] ;
471 -> 472 ;
473 [label="X[32] <= 0.5\ngini = 0.9\nsamples = 10\nvalue = [0, 0, 0 ..., 0, 0, 0]"] ;
471 -> 473 ;
474 [label="X[40] <= 0.119\ngini = 0.889\nsamples = 9\nvalue = [0, 0, 0 ..., 0, 0, 0]"] ;
473 -> 474 ;
475 [label="gini = 0.0\nsamples = 1\nvalue = [0, 0, 0 ..., 0, 0, 0]"] ;
474 -> 475 ;
476 [label="X[43] <= 0.384\ngini = 0.875\nsamples = 8\nvalue = [0, 0, 0 ..., 0, 0, 0]"] ;
474 -> 476 ;
477 [label="gini = 0.0\nsamples = 1\nvalue = [0, 0, 0 ..., 0, 0, 0]"] ;
476 -> 477 ;
478 [label="X[52] <= -0.385\ngini = 0.857\nsamples = 7\nvalue = [0, 0, 0 ..., 0, 0, 0]"] ;
476 -> 478 ;
479 [label="gini = 0.0\nsamples = 1\nvalue = [0, 0, 0 ..., 0, 0, 0]"] ;
478 -> 479 ;
480 [label="X[39] <= 0.031\ngini = 0.833\nsamples = 6\nvalue = [0, 0, 0 ..., 0, 0, 0]"] ;
478 -> 480 ;
481 [label="gini = 0.0\nsamples = 1\nvalue = [0, 0, 0 ..., 0, 0, 0]"] ;
480 -> 481 ;
482 [label="X[55] <= 0.134\ngini = 0.8\nsamples = 5\nvalue = [0, 0, 0 ..., 0, 0, 0]"] ;
480 -> 482 ;
483 [label="X[48] <= 0.4\ngini = 0.5\nsamples = 2\nvalue = [0, 0, 0 ..., 0, 0, 0]"] ;
482 -> 483 ;
484 [label="gini = 0.0\nsamples = 1\nvalue = [0, 0, 0 ..., 0, 0, 0]"] ;
483 -> 484 ;
485 [label="gini = 0.0\nsamples = 1\nvalue = [0, 0, 0 ..., 0, 0, 0]"] ;
483 -> 485 ;
486 [label="X[26] <= 1805.56\ngini = 0.667\nsamples = 3\nvalue = [0, 0, 0 ..., 0, 0, 0]"] ;
482 -> 486 ;
487 [label="gini = 0.0\nsamples = 1\nvalue = [0, 0, 0 ..., 0, 0, 0]"] ;
486 -> 487 ;
488 [label="X[49] <= 0.382\ngini = 0.5\nsamples = 2\nvalue = [0, 0, 0 ..., 0, 0, 0]"] ;
486 -> 488 ;
489 [label="gini = 0.0\nsamples = 1\nvalue = [0, 0, 0 ..., 0, 0, 0]"] ;
488 -> 489 ;
490 [label="gini = 0.0\nsamples = 1\nvalue = [0, 0, 0 ..., 0, 0, 0]"] ;
488 -> 490 ;
491 [label="gini = 0.0\nsamples = 1\nvalue = [0, 0, 0 ..., 0, 0, 0]"] ;
473 -> 491 ;
492 [label="X[24] <= 1781.206\ngini = 0.84\nsamples = 10\nvalue = [0, 0, 0 ..., 0, 0, 0]"] ;
438 -> 492 ;
493 [label="gini = 0.0\nsamples = 3\nvalue = [0, 0, 0 ..., 0, 0, 0]"] ;
492 -> 493 ;
494 [label="X[5] <= 0.703\ngini = 0.857\nsamples = 7\nvalue = [0, 0, 0 ..., 0, 0, 0]"] ;
492 -> 494 ;
495 [label="gini = 0.0\nsamples = 1\nvalue = [0, 0, 0 ..., 0, 0, 0]"] ;
494 -> 495 ;
496 [label="X[52] <= -0.455\ngini = 0.833\nsamples = 6\nvalue = [0, 0, 0 ..., 0, 0, 0]"] ;
494 -> 496 ;
497 [label="gini = 0.0\nsamples = 1\nvalue = [0, 0, 0 ..., 0, 0, 0]"] ;
496 -> 497 ;
498 [label="X[24] <= 2050.278\ngini = 0.8\nsamples = 5\nvalue = [0, 0, 0 ..., 0, 0, 0]"] ;
496 -> 498 ;
499 [label="gini = 0.0\nsamples = 1\nvalue = [0, 0, 0 ..., 0, 0, 0]"] ;
498 -> 499 ;
500 [label="X[52] <= -0.401\ngini = 0.75\nsamples = 4\nvalue = [0, 0, 0 ..., 0, 0, 0]"] ;
498 -> 500 ;
501 [label="gini = 0.0\nsamples = 1\nvalue = [0, 0, 0 ..., 0, 0, 0]"] ;
500 -> 501 ;
502 [label="X[29] <= 341.5\ngini = 0.667\nsamples = 3\nvalue = [0, 0, 0 ..., 0, 0, 0]"] ;
500 -> 502 ;
503 [label="gini = 0.0\nsamples = 1\nvalue = [0, 0, 0 ..., 0, 0, 0]"] ;
502 -> 503 ;
504 [label="X[20] <= 99.208\ngini = 0.5\nsamples = 2\nvalue = [0, 0, 0 ..., 0, 0, 0]"] ;
502 -> 504 ;
505 [label="gini = 0.0\nsamples = 1\nvalue = [0, 0, 0 ..., 0, 0, 0]"] ;
504 -> 505 ;
506 [label="gini = 0.0\nsamples = 1\nvalue = [0, 0, 0 ..., 0, 0, 0]"] ;
504 -> 506 ;
507 [label="X[44] <= 0.019\ngini = 0.444\nsamples = 3\nvalue = [0, 0, 0 ..., 0, 0, 0]"] ;
429 -> 507 ;
508 [label="gini = 0.0\nsamples = 2\nvalue = [0, 0, 0 ..., 0, 0, 0]"] ;
507 -> 508 ;
509 [label="gini = 0.0\nsamples = 1\nvalue = [0, 0, 0 ..., 0, 0, 0]"] ;
507 -> 509 ;
510 [label="X[46] <= 0.027\ngini = 0.968\nsamples = 84\nvalue = [0, 0, 0 ..., 0, 0, 0]"] ;
428 -> 510 ;
511 [label="X[41] <= 0.129\ngini = 0.966\nsamples = 70\nvalue = [0, 0, 0 ..., 0, 0, 0]"] ;
510 -> 511 ;
512 [label="X[43] <= 0.426\ngini = 0.967\nsamples = 48\nvalue = [0, 0, 0 ..., 0, 0, 0]"] ;
511 -> 512 ;
513 [label="X[52] <= -0.235\ngini = 0.952\nsamples = 28\nvalue = [0, 0, 0 ..., 0, 0, 0]"] ;
512 -> 513 ;
514 [label="X[40] <= 0.027\ngini = 0.944\nsamples = 18\nvalue = [0, 0, 0 ..., 0, 0, 0]"] ;
513 -> 514 ;
515 [label="gini = 0.0\nsamples = 1\nvalue = [0, 0, 0 ..., 0, 0, 0]"] ;
514 -> 515 ;
516 [label="X[19] <= 38.5\ngini = 0.941\nsamples = 17\nvalue = [0, 0, 0 ..., 0, 0, 0]"] ;
514 -> 516 ;
517 [label="gini = 0.0\nsamples = 1\nvalue = [0, 0, 0 ..., 0, 0, 0]"] ;
516 -> 517 ;
518 [label="X[9] <= 0.5\ngini = 0.938\nsamples = 16\nvalue = [0, 0, 0 ..., 0, 0, 0]"] ;
516 -> 518 ;
519 [label="X[34] <= 0.5\ngini = 0.889\nsamples = 9\nvalue = [0, 0, 0 ..., 0, 0, 0]"] ;
518 -> 519 ;
520 [label="X[39] <= 0.031\ngini = 0.75\nsamples = 4\nvalue = [0, 0, 0 ..., 0, 0, 0]"] ;
519 -> 520 ;
521 [label="gini = 0.0\nsamples = 1\nvalue = [0, 0, 0 ..., 0, 0, 0]"] ;
520 -> 521 ;
522 [label="X[49] <= 0.346\ngini = 0.667\nsamples = 3\nvalue = [0, 0, 0 ..., 0, 0, 0]"] ;
520 -> 522 ;
523 [label="gini = 0.0\nsamples = 1\nvalue = [0, 0, 0 ..., 0, 0, 0]"] ;
522 -> 523 ;
524 [label="X[50] <= 0.075\ngini = 0.5\nsamples = 2\nvalue = [0, 0, 0 ..., 0, 0, 0]"] ;
522 -> 524 ;
525 [label="gini = 0.0\nsamples = 1\nvalue = [0, 0, 0 ..., 0, 0, 0]"] ;
524 -> 525 ;
526 [label="gini = 0.0\nsamples = 1\nvalue = [0, 0, 0 ..., 0, 0, 0]"] ;
524 -> 526 ;
527 [label="X[43] <= 0.383\ngini = 0.8\nsamples = 5\nvalue = [0, 0, 0 ..., 0, 0, 0]"] ;
519 -> 527 ;
528 [label="gini = 0.0\nsamples = 1\nvalue = [0, 0, 0 ..., 0, 0, 0]"] ;
527 -> 528 ;
529 [label="X[5] <= 0.582\ngini = 0.75\nsamples = 4\nvalue = [0, 0, 0 ..., 0, 0, 0]"] ;
527 -> 529 ;
530 [label="gini = 0.0\nsamples = 1\nvalue = [0, 0, 0 ..., 0, 0, 0]"] ;
529 -> 530 ;
531 [label="X[44] <= -0.006\ngini = 0.667\nsamples = 3\nvalue = [0, 0, 0 ..., 0, 0, 0]"] ;
529 -> 531 ;
532 [label="gini = 0.0\nsamples = 1\nvalue = [0, 0, 0 ..., 0, 0, 0]"] ;
531 -> 532 ;
533 [label="X[7] <= 9.5\ngini = 0.5\nsamples = 2\nvalue = [0, 0, 0 ..., 0, 0, 0]"] ;
531 -> 533 ;
534 [label="gini = 0.0\nsamples = 1\nvalue = [0, 0, 0 ..., 0, 0, 0]"] ;
533 -> 534 ;
535 [label="gini = 0.0\nsamples = 1\nvalue = [0, 0, 0 ..., 0, 0, 0]"] ;
533 -> 535 ;
536 [label="X[27] <= 766.0\ngini = 0.857\nsamples = 7\nvalue = [0, 0, 0 ..., 0, 0, 0]"] ;
518 -> 536 ;
537 [label="gini = 0.0\nsamples = 1\nvalue = [0, 0, 0 ..., 0, 0, 0]"] ;
536 -> 537 ;
538 [label="X[54] <= -0.312\ngini = 0.833\nsamples = 6\nvalue = [0, 0, 0 ..., 0, 0, 0]"] ;
536 -> 538 ;
539 [label="gini = 0.0\nsamples = 1\nvalue = [0, 0, 0 ..., 0, 0, 0]"] ;
538 -> 539 ;
540 [label="X[55] <= 0.05\ngini = 0.8\nsamples = 5\nvalue = [0, 0, 0 ..., 0, 0, 0]"] ;
538 -> 540 ;
541 [label="X[46] <= 0.017\ngini = 0.75\nsamples = 4\nvalue = [0, 0, 0 ..., 0, 0, 0]"] ;
540 -> 541 ;
542 [label="gini = 0.0\nsamples = 1\nvalue = [0, 0, 0 ..., 0, 0, 0]"] ;
541 -> 542 ;
543 [label="X[51] <= 0.55\ngini = 0.667\nsamples = 3\nvalue = [0, 0, 0 ..., 0, 0, 0]"] ;
541 -> 543 ;
544 [label="gini = 0.0\nsamples = 1\nvalue = [0, 0, 0 ..., 0, 0, 0]"] ;
543 -> 544 ;
545 [label="X[42] <= 0.112\ngini = 0.5\nsamples = 2\nvalue = [0, 0, 0 ..., 0, 0, 0]"] ;
543 -> 545 ;
546 [label="gini = 0.0\nsamples = 1\nvalue = [0, 0, 0 ..., 0, 0, 0]"] ;
545 -> 546 ;
547 [label="gini = 0.0\nsamples = 1\nvalue = [0, 0, 0 ..., 0, 0, 0]"] ;
545 -> 547 ;
548 [label="gini = 0.0\nsamples = 1\nvalue = [0, 0, 0 ..., 0, 0, 0]"] ;
540 -> 548 ;
549 [label="X[3] <= 0.498\ngini = 0.8\nsamples = 10\nvalue = [0, 0, 0 ..., 0, 0, 0]"] ;
513 -> 549 ;
550 [label="gini = 0.0\nsamples = 3\nvalue = [0, 0, 0 ..., 0, 0, 0]"] ;
549 -> 550 ;
551 [label="X[43] <= 0.383\ngini = 0.776\nsamples = 7\nvalue = [0, 0, 0 ..., 0, 0, 0]"] ;
549 -> 551 ;
552 [label="gini = 0.0\nsamples = 2\nvalue = [0, 0, 0 ..., 0, 0, 0]"] ;
551 -> 552 ;
553 [label="X[7] <= 1.5\ngini = 0.72\nsamples = 5\nvalue = [0, 0, 0 ..., 0, 0, 0]"] ;
551 -> 553 ;
554 [label="gini = 0.0\nsamples = 2\nvalue = [0, 0, 0 ..., 0, 0, 0]"] ;
553 -> 554 ;
555 [label="X[0] <= 63.5\ngini = 0.667\nsamples = 3\nvalue = [0, 0, 0 ..., 0, 0, 0]"] ;
553 -> 555 ;
556 [label="gini = 0.0\nsamples = 1\nvalue = [0, 0, 0 ..., 0, 0, 0]"] ;
555 -> 556 ;
557 [label="X[43] <= 0.401\ngini = 0.5\nsamples = 2\nvalue = [0, 0, 0 ..., 0, 0, 0]"] ;
555 -> 557 ;
558 [label="gini = 0.0\nsamples = 1\nvalue = [0, 0, 0 ..., 0, 0, 0]"] ;
557 -> 558 ;
559 [label="gini = 0.0\nsamples = 1\nvalue = [0, 0, 0 ..., 0, 0, 0]"] ;
557 -> 559 ;
560 [label="X[26] <= 2746.933\ngini = 0.91\nsamples = 20\nvalue = [0, 0, 0 ..., 0, 0, 0]"] ;
512 -> 560 ;
561 [label="X[25] <= 4229.058\ngini = 0.903\nsamples = 12\nvalue = [0, 0, 0 ..., 0, 0, 0]"] ;
560 -> 561 ;
562 [label="X[29] <= 761.5\ngini = 0.875\nsamples = 8\nvalue = [0, 0, 0 ..., 0, 0, 0]"] ;
561 -> 562 ;
563 [label="gini = 0.0\nsamples = 1\nvalue = [0, 0, 0 ..., 0, 0, 0]"] ;
562 -> 563 ;
564 [label="X[12] <= 0.5\ngini = 0.857\nsamples = 7\nvalue = [0, 0, 0 ..., 0, 0, 0]"] ;
562 -> 564 ;
565 [label="X[45] <= 0.012\ngini = 0.833\nsamples = 6\nvalue = [0, 0, 0 ..., 0, 0, 0]"] ;
564 -> 565 ;
566 [label="gini = 0.0\nsamples = 1\nvalue = [0, 0, 0 ..., 0, 0, 0]"] ;
565 -> 566 ;
567 [label="X[39] <= 0.023\ngini = 0.8\nsamples = 5\nvalue = [0, 0, 0 ..., 0, 0, 0]"] ;
565 -> 567 ;
568 [label="gini = 0.0\nsamples = 1\nvalue = [0, 0, 0 ..., 0, 0, 0]"] ;
567 -> 568 ;
569 [label="X[21] <= 305.5\ngini = 0.75\nsamples = 4\nvalue = [0, 0, 0 ..., 0, 0, 0]"] ;
567 -> 569 ;
570 [label="gini = 0.0\nsamples = 1\nvalue = [0, 0, 0 ..., 0, 0, 0]"] ;
569 -> 570 ;
571 [label="X[32] <= 0.5\ngini = 0.667\nsamples = 3\nvalue = [0, 0, 0 ..., 0, 0, 0]"] ;
569 -> 571 ;
572 [label="X[5] <= 0.707\ngini = 0.5\nsamples = 2\nvalue = [0, 0, 0 ..., 0, 0, 0]"] ;
571 -> 572 ;
573 [label="gini = 0.0\nsamples = 1\nvalue = [0, 0, 0 ..., 0, 0, 0]"] ;
572 -> 573 ;
574 [label="gini = 0.0\nsamples = 1\nvalue = [0, 0, 0 ..., 0, 0, 0]"] ;
572 -> 574 ;
575 [label="gini = 0.0\nsamples = 1\nvalue = [0, 0, 0 ..., 0, 0, 0]"] ;
571 -> 575 ;
576 [label="gini = 0.0\nsamples = 1\nvalue = [0, 0, 0 ..., 0, 0, 0]"] ;
564 -> 576 ;
577 [label="X[49] <= 0.382\ngini = 0.625\nsamples = 4\nvalue = [0, 0, 0 ..., 0, 0, 0]"] ;
561 -> 577 ;
578 [label="gini = 0.0\nsamples = 2\nvalue = [0, 0, 0 ..., 0, 0, 0]"] ;
577 -> 578 ;
579 [label="X[6] <= 7.0\ngini = 0.5\nsamples = 2\nvalue = [0, 0, 0 ..., 0, 0, 0]"] ;
577 -> 579 ;
580 [label="gini = 0.0\nsamples = 1\nvalue = [0, 0, 0 ..., 0, 0, 0]"] ;
579 -> 580 ;
581 [label="gini = 0.0\nsamples = 1\nvalue = [0, 0, 0 ..., 0, 0, 0]"] ;
579 -> 581 ;
582 [label="X[44] <= 0.026\ngini = 0.688\nsamples = 8\nvalue = [0, 0, 0 ..., 0, 0, 0]"] ;
560 -> 582 ;
583 [label="X[46] <= 0.016\ngini = 0.75\nsamples = 4\nvalue = [0, 0, 0 ..., 0, 0, 0]"] ;
582 -> 583 ;
584 [label="gini = 0.0\nsamples = 1\nvalue = [0, 0, 0 ..., 0, 0, 0]"] ;
583 -> 584 ;
585 [label="X[58] <= 0.292\ngini = 0.667\nsamples = 3\nvalue = [0, 0, 0 ..., 0, 0, 0]"] ;
583 -> 585 ;
586 [label="gini = 0.0\nsamples = 1\nvalue = [0, 0, 0 ..., 0, 0, 0]"] ;
585 -> 586 ;
587 [label="X[44] <= -0.001\ngini = 0.5\nsamples = 2\nvalue = [0, 0, 0 ..., 0, 0, 0]"] ;
585 -> 587 ;
588 [label="gini = 0.0\nsamples = 1\nvalue = [0, 0, 0 ..., 0, 0, 0]"] ;
587 -> 588 ;
589 [label="gini = 0.0\nsamples = 1\nvalue = [0, 0, 0 ..., 0, 0, 0]"] ;
587 -> 589 ;
590 [label="gini = 0.0\nsamples = 4\nvalue = [0, 0, 0 ..., 0, 0, 0]"] ;
582 -> 590 ;
591 [label="X[29] <= 2145.5\ngini = 0.893\nsamples = 22\nvalue = [0, 0, 0 ..., 0, 0, 0]"] ;
511 -> 591 ;
592 [label="X[19] <= 446.0\ngini = 0.909\nsamples = 11\nvalue = [0, 0, 0 ..., 0, 0, 0]"] ;
591 -> 592 ;
593 [label="gini = 0.0\nsamples = 1\nvalue = [0, 0, 0 ..., 0, 0, 0]"] ;
592 -> 593 ;
594 [label="X[6] <= 3.5\ngini = 0.9\nsamples = 10\nvalue = [0, 0, 0 ..., 0, 0, 0]"] ;
592 -> 594 ;
595 [label="X[28] <= 1070.5\ngini = 0.5\nsamples = 2\nvalue = [0, 0, 0 ..., 0, 0, 0]"] ;
594 -> 595 ;
596 [label="gini = 0.0\nsamples = 1\nvalue = [0, 0, 0 ..., 0, 0, 0]"] ;
595 -> 596 ;
597 [label="gini = 0.0\nsamples = 1\nvalue = [0, 0, 0 ..., 0, 0, 0]"] ;
595 -> 597 ;
598 [label="X[41] <= 0.189\ngini = 0.875\nsamples = 8\nvalue = [0, 0, 0 ..., 0, 0, 0]"] ;
594 -> 598 ;
599 [label="gini = 0.0\nsamples = 1\nvalue = [0, 0, 0 ..., 0, 0, 0]"] ;
598 -> 599 ;
600 [label="X[50] <= 0.118\ngini = 0.857\nsamples = 7\nvalue = [0, 0, 0 ..., 0, 0, 0]"] ;
598 -> 600 ;
601 [label="X[8] <= 0.5\ngini = 0.8\nsamples = 5\nvalue = [0, 0, 0 ..., 0, 0, 0]"] ;
600 -> 601 ;
602 [label="gini = 0.0\nsamples = 1\nvalue = [0, 0, 0 ..., 0, 0, 0]"] ;
601 -> 602 ;
603 [label="X[46] <= 0.013\ngini = 0.75\nsamples = 4\nvalue = [0, 0, 0 ..., 0, 0, 0]"] ;
601 -> 603 ;
604 [label="gini = 0.0\nsamples = 1\nvalue = [0, 0, 0 ..., 0, 0, 0]"] ;
603 -> 604 ;
605 [label="X[0] <= 154.0\ngini = 0.667\nsamples = 3\nvalue = [0, 0, 0 ..., 0, 0, 0]"] ;
603 -> 605 ;
606 [label="gini = 0.0\nsamples = 1\nvalue = [0, 0, 0 ..., 0, 0, 0]"] ;
605 -> 606 ;
607 [label="X[53] <= -0.875\ngini = 0.5\nsamples = 2\nvalue = [0, 0, 0 ..., 0, 0, 0]"] ;
605 -> 607 ;
608 [label="gini = 0.0\nsamples = 1\nvalue = [0, 0, 0 ..., 0, 0, 0]"] ;
607 -> 608 ;
609 [label="gini = 0.0\nsamples = 1\nvalue = [0, 0, 0 ..., 0, 0, 0]"] ;
607 -> 609 ;
610 [label="X[48] <= 0.354\ngini = 0.5\nsamples = 2\nvalue = [0, 0, 0 ..., 0, 0, 0]"] ;
600 -> 610 ;
611 [label="gini = 0.0\nsamples = 1\nvalue = [0, 0, 0 ..., 0, 0, 0]"] ;
610 -> 611 ;
612 [label="gini = 0.0\nsamples = 1\nvalue = [0, 0, 0 ..., 0, 0, 0]"] ;
610 -> 612 ;
613 [label="X[6] <= 11.5\ngini = 0.661\nsamples = 11\nvalue = [0, 0, 0 ..., 0, 0, 0]"] ;
591 -> 613 ;
614 [label="X[15] <= 0.5\ngini = 0.406\nsamples = 8\nvalue = [0, 0, 0 ..., 0, 0, 0]"] ;
613 -> 614 ;
615 [label="X[25] <= 5329.394\ngini = 0.245\nsamples = 7\nvalue = [0, 0, 0 ..., 0, 0, 0]"] ;
614 -> 615 ;
616 [label="gini = 0.0\nsamples = 6\nvalue = [0, 0, 0 ..., 0, 0, 0]"] ;
615 -> 616 ;
617 [label="gini = 0.0\nsamples = 1\nvalue = [0, 0, 0 ..., 0, 0, 0]"] ;
615 -> 617 ;
618 [label="gini = 0.0\nsamples = 1\nvalue = [0, 0, 0 ..., 0, 0, 0]"] ;
614 -> 618 ;
619 [label="X[7] <= 2.5\ngini = 0.667\nsamples = 3\nvalue = [0, 0, 0 ..., 0, 0, 0]"] ;
613 -> 619 ;
620 [label="X[48] <= 0.488\ngini = 0.5\nsamples = 2\nvalue = [0, 0, 0 ..., 0, 0, 0]"] ;
619 -> 620 ;
621 [label="gini = 0.0\nsamples = 1\nvalue = [0, 0, 0 ..., 0, 0, 0]"] ;
620 -> 621 ;
622 [label="gini = 0.0\nsamples = 1\nvalue = [0, 0, 0 ..., 0, 0, 0]"] ;
620 -> 622 ;
623 [label="gini = 0.0\nsamples = 1\nvalue = [0, 0, 0 ..., 0, 0, 0]"] ;
619 -> 623 ;
624 [label="X[42] <= 0.182\ngini = 0.867\nsamples = 14\nvalue = [0, 0, 0 ..., 0, 0, 0]"] ;
510 -> 624 ;
625 [label="X[0] <= 213.0\ngini = 0.86\nsamples = 11\nvalue = [0, 0, 0 ..., 0, 0, 0]"] ;
624 -> 625 ;
626 [label="X[11] <= 8.5\ngini = 0.375\nsamples = 4\nvalue = [0, 0, 0 ..., 0, 0, 0]"] ;
625 -> 626 ;
627 [label="gini = 0.0\nsamples = 3\nvalue = [0, 0, 0 ..., 0, 0, 0]"] ;
626 -> 627 ;
628 [label="gini = 0.0\nsamples = 1\nvalue = [0, 0, 0 ..., 0, 0, 0]"] ;
626 -> 628 ;
629 [label="X[6] <= 5.5\ngini = 0.857\nsamples = 7\nvalue = [0, 0, 0 ..., 0, 0, 0]"] ;
625 -> 629 ;
630 [label="X[2] <= 199.5\ngini = 0.5\nsamples = 2\nvalue = [0, 0, 0 ..., 0, 0, 0]"] ;
629 -> 630 ;
631 [label="gini = 0.0\nsamples = 1\nvalue = [0, 0, 0 ..., 0, 0, 0]"] ;
630 -> 631 ;
632 [label="gini = 0.0\nsamples = 1\nvalue = [0, 0, 0 ..., 0, 0, 0]"] ;
630 -> 632 ;
633 [label="X[29] <= 1307.25\ngini = 0.8\nsamples = 5\nvalue = [0, 0, 0 ..., 0, 0, 0]"] ;
629 -> 633 ;
634 [label="gini = 0.0\nsamples = 1\nvalue = [0, 0, 0 ..., 0, 0, 0]"] ;
633 -> 634 ;
635 [label="X[50] <= 0.075\ngini = 0.75\nsamples = 4\nvalue = [0, 0, 0 ..., 0, 0, 0]"] ;
633 -> 635 ;
636 [label="gini = 0.0\nsamples = 1\nvalue = [0, 0, 0 ..., 0, 0, 0]"] ;
635 -> 636 ;
637 [label="X[9] <= 2.5\ngini = 0.667\nsamples = 3\nvalue = [0, 0, 0 ..., 0, 0, 0]"] ;
635 -> 637 ;
638 [label="X[40] <= 0.288\ngini = 0.5\nsamples = 2\nvalue = [0, 0, 0 ..., 0, 0, 0]"] ;
637 -> 638 ;
639 [label="gini = 0.0\nsamples = 1\nvalue = [0, 0, 0 ..., 0, 0, 0]"] ;
638 -> 639 ;
640 [label="gini = 0.0\nsamples = 1\nvalue = [0, 0, 0 ..., 0, 0, 0]"] ;
638 -> 640 ;
641 [label="gini = 0.0\nsamples = 1\nvalue = [0, 0, 0 ..., 0, 0, 0]"] ;
637 -> 641 ;
642 [label="gini = 0.0\nsamples = 3\nvalue = [0, 0, 0 ..., 0, 0, 0]"] ;
624 -> 642 ;
643 [label="X[9] <= 1.5\ngini = 0.444\nsamples = 3\nvalue = [0, 0, 0 ..., 0, 0, 0]"] ;
427 -> 643 ;
644 [label="gini = 0.0\nsamples = 2\nvalue = [0, 0, 0 ..., 0, 0, 0]"] ;
643 -> 644 ;
645 [label="gini = 0.0\nsamples = 1\nvalue = [0, 0, 0 ..., 0, 0, 0]"] ;
643 -> 645 ;
646 [label="gini = 0.0\nsamples = 2\nvalue = [0, 0, 0 ..., 0, 0, 0]"] ;
392 -> 646 ;
647 [label="gini = 0.0\nsamples = 2\nvalue = [0, 0, 0 ..., 0, 0, 0]"] ;
391 -> 647 ;
648 [label="gini = 0.0\nsamples = 2\nvalue = [0, 0, 0 ..., 0, 0, 0]"] ;
390 -> 648 ;
649 [label="X[52] <= -0.317\ngini = 0.893\nsamples = 38\nvalue = [0, 0, 0 ..., 0, 0, 0]"] ;
177 -> 649 ;
650 [label="X[27] <= 542.0\ngini = 0.625\nsamples = 12\nvalue = [0, 0, 0 ..., 0, 0, 0]"] ;
649 -> 650 ;
651 [label="X[6] <= 10.0\ngini = 0.667\nsamples = 3\nvalue = [0, 0, 0 ..., 0, 0, 0]"] ;
650 -> 651 ;
652 [label="gini = 0.0\nsamples = 1\nvalue = [0, 0, 0 ..., 0, 0, 0]"] ;
651 -> 652 ;
653 [label="X[33] <= 0.5\ngini = 0.5\nsamples = 2\nvalue = [0, 0, 0 ..., 0, 0, 0]"] ;
651 -> 653 ;
654 [label="gini = 0.0\nsamples = 1\nvalue = [0, 0, 0 ..., 0, 0, 0]"] ;
653 -> 654 ;
655 [label="gini = 0.0\nsamples = 1\nvalue = [0, 0, 0 ..., 0, 0, 0]"] ;
653 -> 655 ;
656 [label="X[28] <= 22350.0\ngini = 0.37\nsamples = 9\nvalue = [0, 0, 0 ..., 0, 0, 0]"] ;
650 -> 656 ;
657 [label="X[57] <= 0.35\ngini = 0.219\nsamples = 8\nvalue = [0, 0, 0 ..., 0, 0, 0]"] ;
656 -> 657 ;
658 [label="gini = 0.0\nsamples = 1\nvalue = [0, 0, 0 ..., 0, 0, 0]"] ;
657 -> 658 ;
659 [label="gini = 0.0\nsamples = 7\nvalue = [0, 0, 0 ..., 0, 0, 0]"] ;
657 -> 659 ;
660 [label="gini = 0.0\nsamples = 1\nvalue = [0, 0, 0 ..., 0, 0, 0]"] ;
656 -> 660 ;
661 [label="X[0] <= 146.5\ngini = 0.938\nsamples = 26\nvalue = [0, 0, 0 ..., 0, 0, 0]"] ;
649 -> 661 ;
662 [label="X[30] <= 0.5\ngini = 0.911\nsamples = 13\nvalue = [0, 0, 0 ..., 0, 0, 0]"] ;
661 -> 662 ;
663 [label="X[24] <= 399.143\ngini = 0.909\nsamples = 11\nvalue = [0, 0, 0 ..., 0, 0, 0]"] ;
662 -> 663 ;
664 [label="X[23] <= 158761.109\ngini = 0.857\nsamples = 7\nvalue = [0, 0, 0 ..., 0, 0, 0]"] ;
663 -> 664 ;
665 [label="gini = 0.0\nsamples = 1\nvalue = [0, 0, 0 ..., 0, 0, 0]"] ;
664 -> 665 ;
666 [label="X[11] <= 4.0\ngini = 0.833\nsamples = 6\nvalue = [0, 0, 0 ..., 0, 0, 0]"] ;
664 -> 666 ;
667 [label="gini = 0.0\nsamples = 1\nvalue = [0, 0, 0 ..., 0, 0, 0]"] ;
666 -> 667 ;
668 [label="X[1] <= 8.5\ngini = 0.8\nsamples = 5\nvalue = [0, 0, 0 ..., 0, 0, 0]"] ;
666 -> 668 ;
669 [label="gini = 0.0\nsamples = 1\nvalue = [0, 0, 0 ..., 0, 0, 0]"] ;
668 -> 669 ;
670 [label="X[29] <= 600.0\ngini = 0.75\nsamples = 4\nvalue = [0, 0, 0 ..., 0, 0, 0]"] ;
668 -> 670 ;
671 [label="gini = 0.0\nsamples = 1\nvalue = [0, 0, 0 ..., 0, 0, 0]"] ;
670 -> 671 ;
672 [label="X[33] <= 0.5\ngini = 0.667\nsamples = 3\nvalue = [0, 0, 0 ..., 0, 0, 0]"] ;
670 -> 672 ;
673 [label="gini = 0.0\nsamples = 1\nvalue = [0, 0, 0 ..., 0, 0, 0]"] ;
672 -> 673 ;
674 [label="X[41] <= 0.031\ngini = 0.5\nsamples = 2\nvalue = [0, 0, 0 ..., 0, 0, 0]"] ;
672 -> 674 ;
675 [label="gini = 0.0\nsamples = 1\nvalue = [0, 0, 0 ..., 0, 0, 0]"] ;
674 -> 675 ;
676 [label="gini = 0.0\nsamples = 1\nvalue = [0, 0, 0 ..., 0, 0, 0]"] ;
674 -> 676 ;
677 [label="X[46] <= 0.008\ngini = 0.75\nsamples = 4\nvalue = [0, 0, 0 ..., 0, 0, 0]"] ;
663 -> 677 ;
678 [label="gini = 0.0\nsamples = 1\nvalue = [0, 0, 0 ..., 0, 0, 0]"] ;
677 -> 678 ;
679 [label="X[41] <= 0.037\ngini = 0.667\nsamples = 3\nvalue = [0, 0, 0 ..., 0, 0, 0]"] ;
677 -> 679 ;
680 [label="gini = 0.0\nsamples = 1\nvalue = [0, 0, 0 ..., 0, 0, 0]"] ;
679 -> 680 ;
681 [label="X[6] <= 10.5\ngini = 0.5\nsamples = 2\nvalue = [0, 0, 0 ..., 0, 0, 0]"] ;
679 -> 681 ;
682 [label="gini = 0.0\nsamples = 1\nvalue = [0, 0, 0 ..., 0, 0, 0]"] ;
681 -> 682 ;
683 [label="gini = 0.0\nsamples = 1\nvalue = [0, 0, 0 ..., 0, 0, 0]"] ;
681 -> 683 ;
684 [label="gini = 0.0\nsamples = 2\nvalue = [0, 0, 0 ..., 0, 0, 0]"] ;
662 -> 684 ;
685 [label="X[45] <= 0.018\ngini = 0.84\nsamples = 13\nvalue = [0, 0, 0 ..., 0, 0, 0]"] ;
661 -> 685 ;
686 [label="X[23] <= 260463.75\ngini = 0.375\nsamples = 4\nvalue = [0, 0, 0 ..., 0, 0, 0]"] ;
685 -> 686 ;
687 [label="gini = 0.0\nsamples = 3\nvalue = [0, 0, 0 ..., 0, 0, 0]"] ;
686 -> 687 ;
688 [label="gini = 0.0\nsamples = 1\nvalue = [0, 0, 0 ..., 0, 0, 0]"] ;
686 -> 688 ;
689 [label="X[23] <= 260720.844\ngini = 0.864\nsamples = 9\nvalue = [0, 0, 0 ..., 0, 0, 0]"] ;
685 -> 689 ;
690 [label="gini = 0.0\nsamples = 2\nvalue = [0, 0, 0 ..., 0, 0, 0]"] ;
689 -> 690 ;
691 [label="X[34] <= 0.5\ngini = 0.857\nsamples = 7\nvalue = [0, 0, 0 ..., 0, 0, 0]"] ;
689 -> 691 ;
692 [label="X[3] <= 0.348\ngini = 0.8\nsamples = 5\nvalue = [0, 0, 0 ..., 0, 0, 0]"] ;
691 -> 692 ;
693 [label="gini = 0.0\nsamples = 1\nvalue = [0, 0, 0 ..., 0, 0, 0]"] ;
692 -> 693 ;
694 [label="X[30] <= 0.5\ngini = 0.75\nsamples = 4\nvalue = [0, 0, 0 ..., 0, 0, 0]"] ;
692 -> 694 ;
695 [label="X[49] <= 0.332\ngini = 0.667\nsamples = 3\nvalue = [0, 0, 0 ..., 0, 0, 0]"] ;
694 -> 695 ;
696 [label="gini = 0.0\nsamples = 1\nvalue = [0, 0, 0 ..., 0, 0, 0]"] ;
695 -> 696 ;
697 [label="X[51] <= 0.9\ngini = 0.5\nsamples = 2\nvalue = [0, 0, 0 ..., 0, 0, 0]"] ;
695 -> 697 ;
698 [label="gini = 0.0\nsamples = 1\nvalue = [0, 0, 0 ..., 0, 0, 0]"] ;
697 -> 698 ;
699 [label="gini = 0.0\nsamples = 1\nvalue = [0, 0, 0 ..., 0, 0, 0]"] ;
697 -> 699 ;
700 [label="gini = 0.0\nsamples = 1\nvalue = [0, 0, 0 ..., 0, 0, 0]"] ;
694 -> 700 ;
701 [label="X[17] <= 0.5\ngini = 0.5\nsamples = 2\nvalue = [0, 0, 0 ..., 0, 0, 0]"] ;
691 -> 701 ;
702 [label="gini = 0.0\nsamples = 1\nvalue = [0, 0, 0 ..., 0, 0, 0]"] ;
701 -> 702 ;
703 [label="gini = 0.0\nsamples = 1\nvalue = [0, 0, 0 ..., 0, 0, 0]"] ;
701 -> 703 ;
704 [label="X[27] <= 57000.0\ngini = 0.98\nsamples = 1302\nvalue = [1, 0, 0 ..., 0, 0, 0]"] ;
176 -> 704 ;
705 [label="X[26] <= 1818.581\ngini = 0.98\nsamples = 1298\nvalue = [1, 0, 0 ..., 0, 0, 0]"] ;
704 -> 705 ;
706 [label="X[20] <= 153.1\ngini = 0.941\nsamples = 81\nvalue = [0, 0, 0 ..., 0, 0, 0]"] ;
705 -> 706 ;
707 [label="X[27] <= 1014.5\ngini = 0.859\nsamples = 38\nvalue = [0, 0, 0 ..., 0, 0, 0]"] ;
706 -> 707 ;
708 [label="X[38] <= 0.02\ngini = 0.923\nsamples = 13\nvalue = [0, 0, 0 ..., 0, 0, 0]"] ;
707 -> 708 ;
709 [label="gini = 0.0\nsamples = 1\nvalue = [0, 0, 0 ..., 0, 0, 0]"] ;
708 -> 709 ;
710 [label="X[41] <= 0.021\ngini = 0.917\nsamples = 12\nvalue = [0, 0, 0 ..., 0, 0, 0]"] ;
708 -> 710 ;
711 [label="gini = 0.0\nsamples = 1\nvalue = [0, 0, 0 ..., 0, 0, 0]"] ;
710 -> 711 ;
712 [label="X[52] <= -0.387\ngini = 0.909\nsamples = 11\nvalue = [0, 0, 0 ..., 0, 0, 0]"] ;
710 -> 712 ;
713 [label="gini = 0.0\nsamples = 1\nvalue = [0, 0, 0 ..., 0, 0, 0]"] ;
712 -> 713 ;
714 [label="X[26] <= 1367.189\ngini = 0.9\nsamples = 10\nvalue = [0, 0, 0 ..., 0, 0, 0]"] ;
712 -> 714 ;
715 [label="gini = 0.0\nsamples = 1\nvalue = [0, 0, 0 ..., 0, 0, 0]"] ;
714 -> 715 ;
716 [label="X[17] <= 0.5\ngini = 0.889\nsamples = 9\nvalue = [0, 0, 0 ..., 0, 0, 0]"] ;
714 -> 716 ;
717 [label="gini = 0.0\nsamples = 1\nvalue = [0, 0, 0 ..., 0, 0, 0]"] ;
716 -> 717 ;
718 [label="X[56] <= -0.114\ngini = 0.875\nsamples = 8\nvalue = [0, 0, 0 ..., 0, 0, 0]"] ;
716 -> 718 ;
719 [label="gini = 0.0\nsamples = 1\nvalue = [0, 0, 0 ..., 0, 0, 0]"] ;
718 -> 719 ;
720 [label="X[29] <= 377.5\ngini = 0.857\nsamples = 7\nvalue = [0, 0, 0 ..., 0, 0, 0]"] ;
718 -> 720 ;
721 [label="X[47] <= 0.524\ngini = 0.667\nsamples = 3\nvalue = [0, 0, 0 ..., 0, 0, 0]"] ;
720 -> 721 ;
722 [label="gini = 0.0\nsamples = 1\nvalue = [0, 0, 0 ..., 0, 0, 0]"] ;
721 -> 722 ;
723 [label="X[9] <= 3.5\ngini = 0.5\nsamples = 2\nvalue = [0, 0, 0 ..., 0, 0, 0]"] ;
721 -> 723 ;
724 [label="gini = 0.0\nsamples = 1\nvalue = [0, 0, 0 ..., 0, 0, 0]"] ;
723 -> 724 ;
725 [label="gini = 0.0\nsamples = 1\nvalue = [0, 0, 0 ..., 0, 0, 0]"] ;
723 -> 725 ;
726 [label="X[46] <= 0.01\ngini = 0.75\nsamples = 4\nvalue = [0, 0, 0 ..., 0, 0, 0]"] ;
720 -> 726 ;
727 [label="gini = 0.0\nsamples = 1\nvalue = [0, 0, 0 ..., 0, 0, 0]"] ;
726 -> 727 ;
728 [label="X[20] <= 50.625\ngini = 0.667\nsamples = 3\nvalue = [0, 0, 0 ..., 0, 0, 0]"] ;
726 -> 728 ;
729 [label="gini = 0.0\nsamples = 1\nvalue = [0, 0, 0 ..., 0, 0, 0]"] ;
728 -> 729 ;
730 [label="X[51] <= 0.775\ngini = 0.5\nsamples = 2\nvalue = [0, 0, 0 ..., 0, 0, 0]"] ;
728 -> 730 ;
731 [label="gini = 0.0\nsamples = 1\nvalue = [0, 0, 0 ..., 0, 0, 0]"] ;
730 -> 731 ;
732 [label="gini = 0.0\nsamples = 1\nvalue = [0, 0, 0 ..., 0, 0, 0]"] ;
730 -> 732 ;
733 [label="X[43] <= 0.452\ngini = 0.742\nsamples = 25\nvalue = [0, 0, 0 ..., 0, 0, 0]"] ;
707 -> 733 ;
734 [label="X[52] <= -0.198\ngini = 0.582\nsamples = 19\nvalue = [0, 0, 0 ..., 0, 0, 0]"] ;
733 -> 734 ;
735 [label="X[8] <= 6.5\ngini = 0.347\nsamples = 15\nvalue = [0, 0, 0 ..., 0, 0, 0]"] ;
734 -> 735 ;
736 [label="X[10] <= 4.783\ngini = 0.142\nsamples = 13\nvalue = [0, 0, 0 ..., 0, 0, 0]"] ;
735 -> 736 ;
737 [label="gini = 0.0\nsamples = 11\nvalue = [0, 0, 0 ..., 0, 0, 0]"] ;
736 -> 737 ;
738 [label="X[0] <= 284.0\ngini = 0.5\nsamples = 2\nvalue = [0, 0, 0 ..., 0, 0, 0]"] ;
736 -> 738 ;
739 [label="gini = 0.0\nsamples = 1\nvalue = [0, 0, 0 ..., 0, 0, 0]"] ;
738 -> 739 ;
740 [label="gini = 0.0\nsamples = 1\nvalue = [0, 0, 0 ..., 0, 0, 0]"] ;
738 -> 740 ;
741 [label="X[55] <= 0.175\ngini = 0.5\nsamples = 2\nvalue = [0, 0, 0 ..., 0, 0, 0]"] ;
735 -> 741 ;
742 [label="gini = 0.0\nsamples = 1\nvalue = [0, 0, 0 ..., 0, 0, 0]"] ;
741 -> 742 ;
743 [label="gini = 0.0\nsamples = 1\nvalue = [0, 0, 0 ..., 0, 0, 0]"] ;
741 -> 743 ;
744 [label="X[2] <= 420.0\ngini = 0.75\nsamples = 4\nvalue = [0, 0, 0 ..., 0, 0, 0]"] ;
734 -> 744 ;
745 [label="gini = 0.0\nsamples = 1\nvalue = [0, 0, 0 ..., 0, 0, 0]"] ;
744 -> 745 ;
746 [label="X[58] <= 0.062\ngini = 0.667\nsamples = 3\nvalue = [0, 0, 0 ..., 0, 0, 0]"] ;
744 -> 746 ;
747 [label="gini = 0.0\nsamples = 1\nvalue = [0, 0, 0 ..., 0, 0, 0]"] ;
746 -> 747 ;
748 [label="X[1] <= 8.5\ngini = 0.5\nsamples = 2\nvalue = [0, 0, 0 ..., 0, 0, 0]"] ;
746 -> 748 ;
749 [label="gini = 0.0\nsamples = 1\nvalue = [0, 0, 0 ..., 0, 0, 0]"] ;
748 -> 749 ;
750 [label="gini = 0.0\nsamples = 1\nvalue = [0, 0, 0 ..., 0, 0, 0]"] ;
748 -> 750 ;
751 [label="X[28] <= 1500.0\ngini = 0.833\nsamples = 6\nvalue = [0, 0, 0 ..., 0, 0, 0]"] ;
733 -> 751 ;
752 [label="gini = 0.0\nsamples = 1\nvalue = [0, 0, 0 ..., 0, 0, 0]"] ;
751 -> 752 ;
753 [label="X[57] <= 0.25\ngini = 0.8\nsamples = 5\nvalue = [0, 0, 0 ..., 0, 0, 0]"] ;
751 -> 753 ;
754 [label="gini = 0.0\nsamples = 1\nvalue = [0, 0, 0 ..., 0, 0, 0]"] ;
753 -> 754 ;
755 [label="X[43] <= 0.475\ngini = 0.75\nsamples = 4\nvalue = [0, 0, 0 ..., 0, 0, 0]"] ;
753 -> 755 ;
756 [label="gini = 0.0\nsamples = 1\nvalue = [0, 0, 0 ..., 0, 0, 0]"] ;
755 -> 756 ;
757 [label="X[44] <= 0.13\ngini = 0.667\nsamples = 3\nvalue = [0, 0, 0 ..., 0, 0, 0]"] ;
755 -> 757 ;
758 [label="gini = 0.0\nsamples = 1\nvalue = [0, 0, 0 ..., 0, 0, 0]"] ;
757 -> 758 ;
759 [label="X[11] <= 8.0\ngini = 0.5\nsamples = 2\nvalue = [0, 0, 0 ..., 0, 0, 0]"] ;
757 -> 759 ;
760 [label="gini = 0.0\nsamples = 1\nvalue = [0, 0, 0 ..., 0, 0, 0]"] ;
759 -> 760 ;
761 [label="gini = 0.0\nsamples = 1\nvalue = [0, 0, 0 ..., 0, 0, 0]"] ;
759 -> 761 ;
762 [label="X[19] <= 641.0\ngini = 0.963\nsamples = 43\nvalue = [0, 0, 0 ..., 0, 0, 0]"] ;
706 -> 762 ;
763 [label="X[41] <= 0.029\ngini = 0.793\nsamples = 11\nvalue = [0, 0, 0 ..., 0, 0, 0]"] ;
762 -> 763 ;
764 [label="X[10] <= 4.717\ngini = 0.741\nsamples = 9\nvalue = [0, 0, 0 ..., 0, 0, 0]"] ;
763 -> 764 ;
765 [label="X[41] <= 0.02\ngini = 0.833\nsamples = 6\nvalue = [0, 0, 0 ..., 0, 0, 0]"] ;
764 -> 765 ;
766 [label="gini = 0.0\nsamples = 1\nvalue = [0, 0, 0 ..., 0, 0, 0]"] ;
765 -> 766 ;
767 [label="X[29] <= 1085.5\ngini = 0.8\nsamples = 5\nvalue = [0, 0, 0 ..., 0, 0, 0]"] ;
765 -> 767 ;
768 [label="gini = 0.0\nsamples = 1\nvalue = [0, 0, 0 ..., 0, 0, 0]"] ;
767 -> 768 ;
769 [label="X[3] <= 0.428\ngini = 0.75\nsamples = 4\nvalue = [0, 0, 0 ..., 0, 0, 0]"] ;
767 -> 769 ;
770 [label="gini = 0.0\nsamples = 1\nvalue = [0, 0, 0 ..., 0, 0, 0]"] ;
769 -> 770 ;
771 [label="X[39] <= 0.071\ngini = 0.667\nsamples = 3\nvalue = [0, 0, 0 ..., 0, 0, 0]"] ;
769 -> 771 ;
772 [label="gini = 0.0\nsamples = 1\nvalue = [0, 0, 0 ..., 0, 0, 0]"] ;
771 -> 772 ;
773 [label="X[29] <= 1580.333\ngini = 0.5\nsamples = 2\nvalue = [0, 0, 0 ..., 0, 0, 0]"] ;
771 -> 773 ;
774 [label="gini = 0.0\nsamples = 1\nvalue = [0, 0, 0 ..., 0, 0, 0]"] ;
773 -> 774 ;
775 [label="gini = 0.0\nsamples = 1\nvalue = [0, 0, 0 ..., 0, 0, 0]"] ;
773 -> 775 ;
776 [label="gini = 0.0\nsamples = 3\nvalue = [0, 0, 0 ..., 0, 0, 0]"] ;
764 -> 776 ;
777 [label="gini = 0.0\nsamples = 2\nvalue = [0, 0, 0 ..., 0, 0, 0]"] ;
763 -> 777 ;
778 [label="X[6] <= 8.5\ngini = 0.961\nsamples = 32\nvalue = [0, 0, 0 ..., 0, 0, 0]"] ;
762 -> 778 ;
779 [label="X[31] <= 0.5\ngini = 0.876\nsamples = 13\nvalue = [0, 0, 0 ..., 0, 0, 0]"] ;
778 -> 779 ;
780 [label="X[46] <= 0.018\ngini = 0.86\nsamples = 11\nvalue = [0, 0, 0 ..., 0, 0, 0]"] ;
779 -> 780 ;
781 [label="X[53] <= -0.417\ngini = 0.56\nsamples = 5\nvalue = [0, 0, 0 ..., 0, 0, 0]"] ;
780 -> 781 ;
782 [label="gini = 0.0\nsamples = 3\nvalue = [0, 0, 0 ..., 0, 0, 0]"] ;
781 -> 782 ;
783 [label="X[52] <= -0.184\ngini = 0.5\nsamples = 2\nvalue = [0, 0, 0 ..., 0, 0, 0]"] ;
781 -> 783 ;
784 [label="gini = 0.0\nsamples = 1\nvalue = [0, 0, 0 ..., 0, 0, 0]"] ;
783 -> 784 ;
785 [label="gini = 0.0\nsamples = 1\nvalue = [0, 0, 0 ..., 0, 0, 0]"] ;
783 -> 785 ;
786 [label="X[51] <= 0.65\ngini = 0.833\nsamples = 6\nvalue = [0, 0, 0 ..., 0, 0, 0]"] ;
780 -> 786 ;
787 [label="X[20] <= 289.788\ngini = 0.5\nsamples = 2\nvalue = [0, 0, 0 ..., 0, 0, 0]"] ;
786 -> 787 ;
788 [label="gini = 0.0\nsamples = 1\nvalue = [0, 0, 0 ..., 0, 0, 0]"] ;
787 -> 788 ;
789 [label="gini = 0.0\nsamples = 1\nvalue = [0, 0, 0 ..., 0, 0, 0]"] ;
787 -> 789 ;
790 [label="X[47] <= 0.579\ngini = 0.75\nsamples = 4\nvalue = [0, 0, 0 ..., 0, 0, 0]"] ;
786 -> 790 ;
791 [label="gini = 0.0\nsamples = 1\nvalue = [0, 0, 0 ..., 0, 0, 0]"] ;
790 -> 791 ;
792 [label="X[0] <= 81.5\ngini = 0.667\nsamples = 3\nvalue = [0, 0, 0 ..., 0, 0, 0]"] ;
790 -> 792 ;
793 [label="gini = 0.0\nsamples = 1\nvalue = [0, 0, 0 ..., 0, 0, 0]"] ;
792 -> 793 ;
794 [label="X[8] <= 3.0\ngini = 0.5\nsamples = 2\nvalue = [0, 0, 0 ..., 0, 0, 0]"] ;
792 -> 794 ;
795 [label="gini = 0.0\nsamples = 1\nvalue = [0, 0, 0 ..., 0, 0, 0]"] ;
794 -> 795 ;
796 [label="gini = 0.0\nsamples = 1\nvalue = [0, 0, 0 ..., 0, 0, 0]"] ;
794 -> 796 ;
797 [label="gini = 0.0\nsamples = 2\nvalue = [0, 0, 0 ..., 0, 0, 0]"] ;
779 -> 797 ;
798 [label="X[20] <= 163.875\ngini = 0.947\nsamples = 19\nvalue = [0, 0, 0 ..., 0, 0, 0]"] ;
778 -> 798 ;
799 [label="gini = 0.0\nsamples = 1\nvalue = [0, 0, 0 ..., 0, 0, 0]"] ;
798 -> 799 ;
800 [label="X[7] <= 0.5\ngini = 0.944\nsamples = 18\nvalue = [0, 0, 0 ..., 0, 0, 0]"] ;
798 -> 800 ;
801 [label="X[2] <= 1008.5\ngini = 0.667\nsamples = 3\nvalue = [0, 0, 0 ..., 0, 0, 0]"] ;
800 -> 801 ;
802 [label="gini = 0.0\nsamples = 1\nvalue = [0, 0, 0 ..., 0, 0, 0]"] ;
801 -> 802 ;
803 [label="X[51] <= 0.9\ngini = 0.5\nsamples = 2\nvalue = [0, 0, 0 ..., 0, 0, 0]"] ;
801 -> 803 ;
804 [label="gini = 0.0\nsamples = 1\nvalue = [0, 0, 0 ..., 0, 0, 0]"] ;
803 -> 804 ;
805 [label="gini = 0.0\nsamples = 1\nvalue = [0, 0, 0 ..., 0, 0, 0]"] ;
803 -> 805 ;
806 [label="X[39] <= 0.019\ngini = 0.933\nsamples = 15\nvalue = [0, 0, 0 ..., 0, 0, 0]"] ;
800 -> 806 ;
807 [label="gini = 0.0\nsamples = 1\nvalue = [0, 0, 0 ..., 0, 0, 0]"] ;
806 -> 807 ;
808 [label="X[46] <= 0.005\ngini = 0.929\nsamples = 14\nvalue = [0, 0, 0 ..., 0, 0, 0]"] ;
806 -> 808 ;
809 [label="gini = 0.0\nsamples = 1\nvalue = [0, 0, 0 ..., 0, 0, 0]"] ;
808 -> 809 ;
810 [label="X[55] <= 0.144\ngini = 0.923\nsamples = 13\nvalue = [0, 0, 0 ..., 0, 0, 0]"] ;
808 -> 810 ;
811 [label="X[51] <= 0.65\ngini = 0.833\nsamples = 6\nvalue = [0, 0, 0 ..., 0, 0, 0]"] ;
810 -> 811 ;
812 [label="X[43] <= 0.413\ngini = 0.5\nsamples = 2\nvalue = [0, 0, 0 ..., 0, 0, 0]"] ;
811 -> 812 ;
813 [label="gini = 0.0\nsamples = 1\nvalue = [0, 0, 0 ..., 0, 0, 0]"] ;
812 -> 813 ;
814 [label="gini = 0.0\nsamples = 1\nvalue = [0, 0, 0 ..., 0, 0, 0]"] ;
812 -> 814 ;
815 [label="X[48] <= 0.373\ngini = 0.75\nsamples = 4\nvalue = [0, 0, 0 ..., 0, 0, 0]"] ;
811 -> 815 ;
816 [label="gini = 0.0\nsamples = 1\nvalue = [0, 0, 0 ..., 0, 0, 0]"] ;
815 -> 816 ;
817 [label="X[23] <= 151193.781\ngini = 0.667\nsamples = 3\nvalue = [0, 0, 0 ..., 0, 0, 0]"] ;
815 -> 817 ;
818 [label="gini = 0.0\nsamples = 1\nvalue = [0, 0, 0 ..., 0, 0, 0]"] ;
817 -> 818 ;
819 [label="X[26] <= 1349.0\ngini = 0.5\nsamples = 2\nvalue = [0, 0, 0 ..., 0, 0, 0]"] ;
817 -> 819 ;
820 [label="gini = 0.0\nsamples = 1\nvalue = [0, 0, 0 ..., 0, 0, 0]"] ;
819 -> 820 ;
821 [label="gini = 0.0\nsamples = 1\nvalue = [0, 0, 0 ..., 0, 0, 0]"] ;
819 -> 821 ;
822 [label="X[52] <= -0.355\ngini = 0.857\nsamples = 7\nvalue = [0, 0, 0 ..., 0, 0, 0]"] ;
810 -> 822 ;
823 [label="gini = 0.0\nsamples = 1\nvalue = [0, 0, 0 ..., 0, 0, 0]"] ;
822 -> 823 ;
824 [label="X[46] <= 0.012\ngini = 0.833\nsamples = 6\nvalue = [0, 0, 0 ..., 0, 0, 0]"] ;
822 -> 824 ;
825 [label="gini = 0.0\nsamples = 1\nvalue = [0, 0, 0 ..., 0, 0, 0]"] ;
824 -> 825 ;
826 [label="X[7] <= 2.0\ngini = 0.8\nsamples = 5\nvalue = [0, 0, 0 ..., 0, 0, 0]"] ;
824 -> 826 ;
827 [label="X[40] <= 0.165\ngini = 0.75\nsamples = 4\nvalue = [0, 0, 0 ..., 0, 0, 0]"] ;
826 -> 827 ;
828 [label="gini = 0.0\nsamples = 1\nvalue = [0, 0, 0 ..., 0, 0, 0]"] ;
827 -> 828 ;
829 [label="X[52] <= -0.25\ngini = 0.667\nsamples = 3\nvalue = [0, 0, 0 ..., 0, 0, 0]"] ;
827 -> 829 ;
830 [label="gini = 0.0\nsamples = 1\nvalue = [0, 0, 0 ..., 0, 0, 0]"] ;
829 -> 830 ;
831 [label="X[52] <= -0.19\ngini = 0.5\nsamples = 2\nvalue = [0, 0, 0 ..., 0, 0, 0]"] ;
829 -> 831 ;
832 [label="gini = 0.0\nsamples = 1\nvalue = [0, 0, 0 ..., 0, 0, 0]"] ;
831 -> 832 ;
833 [label="gini = 0.0\nsamples = 1\nvalue = [0, 0, 0 ..., 0, 0, 0]"] ;
831 -> 833 ;
834 [label="gini = 0.0\nsamples = 1\nvalue = [0, 0, 0 ..., 0, 0, 0]"] ;
826 -> 834 ;
835 [label="X[41] <= 0.866\ngini = 0.981\nsamples = 1217\nvalue = [1, 0, 0 ..., 0, 0, 0]"] ;
705 -> 835 ;
836 [label="X[5] <= 0.522\ngini = 0.981\nsamples = 1198\nvalue = [1, 0, 0 ..., 0, 0, 0]"] ;
835 -> 836 ;
837 [label="X[40] <= 0.319\ngini = 0.933\nsamples = 48\nvalue = [0, 0, 0 ..., 0, 0, 0]"] ;
836 -> 837 ;
838 [label="X[19] <= 1148.5\ngini = 0.918\nsamples = 14\nvalue = [0, 0, 0 ..., 0, 0, 0]"] ;
837 -> 838 ;
839 [label="X[32] <= 0.5\ngini = 0.917\nsamples = 12\nvalue = [0, 0, 0 ..., 0, 0, 0]"] ;
838 -> 839 ;
840 [label="X[55] <= 0.25\ngini = 0.909\nsamples = 11\nvalue = [0, 0, 0 ..., 0, 0, 0]"] ;
839 -> 840 ;
841 [label="X[46] <= 0.012\ngini = 0.833\nsamples = 6\nvalue = [0, 0, 0 ..., 0, 0, 0]"] ;
840 -> 841 ;
842 [label="gini = 0.0\nsamples = 1\nvalue = [0, 0, 0 ..., 0, 0, 0]"] ;
841 -> 842 ;
843 [label="X[30] <= 0.5\ngini = 0.8\nsamples = 5\nvalue = [0, 0, 0 ..., 0, 0, 0]"] ;
841 -> 843 ;
844 [label="X[54] <= -0.083\ngini = 0.75\nsamples = 4\nvalue = [0, 0, 0 ..., 0, 0, 0]"] ;
843 -> 844 ;
845 [label="X[26] <= 2561.696\ngini = 0.5\nsamples = 2\nvalue = [0, 0, 0 ..., 0, 0, 0]"] ;
844 -> 845 ;
846 [label="gini = 0.0\nsamples = 1\nvalue = [0, 0, 0 ..., 0, 0, 0]"] ;
845 -> 846 ;
847 [label="gini = 0.0\nsamples = 1\nvalue = [0, 0, 0 ..., 0, 0, 0]"] ;
845 -> 847 ;
848 [label="X[2] <= 2159.5\ngini = 0.5\nsamples = 2\nvalue = [0, 0, 0 ..., 0, 0, 0]"] ;
844 -> 848 ;
849 [label="gini = 0.0\nsamples = 1\nvalue = [0, 0, 0 ..., 0, 0, 0]"] ;
848 -> 849 ;
850 [label="gini = 0.0\nsamples = 1\nvalue = [0, 0, 0 ..., 0, 0, 0]"] ;
848 -> 850 ;
851 [label="gini = 0.0\nsamples = 1\nvalue = [0, 0, 0 ..., 0, 0, 0]"] ;
843 -> 851 ;
852 [label="X[20] <= 113.917\ngini = 0.8\nsamples = 5\nvalue = [0, 0, 0 ..., 0, 0, 0]"] ;
840 -> 852 ;
853 [label="gini = 0.0\nsamples = 1\nvalue = [0, 0, 0 ..., 0, 0, 0]"] ;
852 -> 853 ;
854 [label="X[41] <= 0.402\ngini = 0.75\nsamples = 4\nvalue = [0, 0, 0 ..., 0, 0, 0]"] ;
852 -> 854 ;
855 [label="gini = 0.0\nsamples = 1\nvalue = [0, 0, 0 ..., 0, 0, 0]"] ;
854 -> 855 ;
856 [label="X[28] <= 6500.0\ngini = 0.667\nsamples = 3\nvalue = [0, 0, 0 ..., 0, 0, 0]"] ;
854 -> 856 ;
857 [label="gini = 0.0\nsamples = 1\nvalue = [0, 0, 0 ..., 0, 0, 0]"] ;
856 -> 857 ;
858 [label="X[0] <= 134.0\ngini = 0.5\nsamples = 2\nvalue = [0, 0, 0 ..., 0, 0, 0]"] ;
856 -> 858 ;
859 [label="gini = 0.0\nsamples = 1\nvalue = [0, 0, 0 ..., 0, 0, 0]"] ;
858 -> 859 ;
860 [label="gini = 0.0\nsamples = 1\nvalue = [0, 0, 0 ..., 0, 0, 0]"] ;
858 -> 860 ;
861 [label="gini = 0.0\nsamples = 1\nvalue = [0, 0, 0 ..., 0, 0, 0]"] ;
839 -> 861 ;
862 [label="gini = 0.0\nsamples = 2\nvalue = [0, 0, 0 ..., 0, 0, 0]"] ;
838 -> 862 ;
863 [label="X[2] <= 986.0\ngini = 0.882\nsamples = 34\nvalue = [0, 0, 0 ..., 0, 0, 0]"] ;
837 -> 863 ;
864 [label="X[27] <= 711.5\ngini = 0.5\nsamples = 6\nvalue = [0, 0, 0 ..., 0, 0, 0]"] ;
863 -> 864 ;
865 [label="X[1] <= 12.0\ngini = 0.5\nsamples = 2\nvalue = [0, 0, 0 ..., 0, 0, 0]"] ;
864 -> 865 ;
866 [label="gini = 0.0\nsamples = 1\nvalue = [0, 0, 0 ..., 0, 0, 0]"] ;
865 -> 866 ;
867 [label="gini = 0.0\nsamples = 1\nvalue = [0, 0, 0 ..., 0, 0, 0]"] ;
865 -> 867 ;
868 [label="gini = 0.0\nsamples = 4\nvalue = [0, 0, 0 ..., 0, 0, 0]"] ;
864 -> 868 ;
869 [label="X[20] <= 214.429\ngini = 0.88\nsamples = 28\nvalue = [0, 0, 0 ..., 0, 0, 0]"] ;
863 -> 869 ;
870 [label="X[55] <= 0.875\ngini = 0.914\nsamples = 19\nvalue = [0, 0, 0 ..., 0, 0, 0]"] ;
869 -> 870 ;
871 [label="X[56] <= 0.438\ngini = 0.907\nsamples = 17\nvalue = [0, 0, 0 ..., 0, 0, 0]"] ;
870 -> 871 ;
872 [label="X[45] <= 0.056\ngini = 0.916\nsamples = 15\nvalue = [0, 0, 0 ..., 0, 0, 0]"] ;
871 -> 872 ;
873 [label="X[29] <= 2393.1\ngini = 0.903\nsamples = 12\nvalue = [0, 0, 0 ..., 0, 0, 0]"] ;
872 -> 873 ;
874 [label="X[58] <= 0.068\ngini = 0.875\nsamples = 8\nvalue = [0, 0, 0 ..., 0, 0, 0]"] ;
873 -> 874 ;
875 [label="X[49] <= 0.342\ngini = 0.8\nsamples = 5\nvalue = [0, 0, 0 ..., 0, 0, 0]"] ;
874 -> 875 ;
876 [label="gini = 0.0\nsamples = 1\nvalue = [0, 0, 0 ..., 0, 0, 0]"] ;
875 -> 876 ;
877 [label="X[48] <= 0.279\ngini = 0.75\nsamples = 4\nvalue = [0, 0, 0 ..., 0, 0, 0]"] ;
875 -> 877 ;
878 [label="gini = 0.0\nsamples = 1\nvalue = [0, 0, 0 ..., 0, 0, 0]"] ;
877 -> 878 ;
879 [label="X[40] <= 0.602\ngini = 0.667\nsamples = 3\nvalue = [0, 0, 0 ..., 0, 0, 0]"] ;
877 -> 879 ;
880 [label="gini = 0.0\nsamples = 1\nvalue = [0, 0, 0 ..., 0, 0, 0]"] ;
879 -> 880 ;
881 [label="X[21] <= 8500.0\ngini = 0.5\nsamples = 2\nvalue = [0, 0, 0 ..., 0, 0, 0]"] ;
879 -> 881 ;
882 [label="gini = 0.0\nsamples = 1\nvalue = [0, 0, 0 ..., 0, 0, 0]"] ;
881 -> 882 ;
883 [label="gini = 0.0\nsamples = 1\nvalue = [0, 0, 0 ..., 0, 0, 0]"] ;
881 -> 883 ;
884 [label="X[38] <= 0.091\ngini = 0.667\nsamples = 3\nvalue = [0, 0, 0 ..., 0, 0, 0]"] ;
874 -> 884 ;
885 [label="X[8] <= 35.5\ngini = 0.5\nsamples = 2\nvalue = [0, 0, 0 ..., 0, 0, 0]"] ;
884 -> 885 ;
886 [label="gini = 0.0\nsamples = 1\nvalue = [0, 0, 0 ..., 0, 0, 0]"] ;
885 -> 886 ;
887 [label="gini = 0.0\nsamples = 1\nvalue = [0, 0, 0 ..., 0, 0, 0]"] ;
885 -> 887 ;
888 [label="gini = 0.0\nsamples = 1\nvalue = [0, 0, 0 ..., 0, 0, 0]"] ;
884 -> 888 ;
889 [label="X[2] <= 2008.5\ngini = 0.625\nsamples = 4\nvalue = [0, 0, 0 ..., 0, 0, 0]"] ;
873 -> 889 ;
890 [label="X[44] <= 0.135\ngini = 0.5\nsamples = 2\nvalue = [0, 0, 0 ..., 0, 0, 0]"] ;
889 -> 890 ;
891 [label="gini = 0.0\nsamples = 1\nvalue = [0, 0, 0 ..., 0, 0, 0]"] ;
890 -> 891 ;
892 [label="gini = 0.0\nsamples = 1\nvalue = [0, 0, 0 ..., 0, 0, 0]"] ;
890 -> 892 ;
893 [label="gini = 0.0\nsamples = 2\nvalue = [0, 0, 0 ..., 0, 0, 0]"] ;
889 -> 893 ;
894 [label="X[26] <= 2872.561\ngini = 0.444\nsamples = 3\nvalue = [0, 0, 0 ..., 0, 0, 0]"] ;
872 -> 894 ;
895 [label="gini = 0.0\nsamples = 2\nvalue = [0, 0, 0 ..., 0, 0, 0]"] ;
894 -> 895 ;
896 [label="gini = 0.0\nsamples = 1\nvalue = [0, 0, 0 ..., 0, 0, 0]"] ;
894 -> 896 ;
897 [label="gini = 0.0\nsamples = 2\nvalue = [0, 0, 0 ..., 0, 0, 0]"] ;
871 -> 897 ;
898 [label="gini = 0.0\nsamples = 2\nvalue = [0, 0, 0 ..., 0, 0, 0]"] ;
870 -> 898 ;
899 [label="X[5] <= 0.454\ngini = 0.519\nsamples = 9\nvalue = [0, 0, 0 ..., 0, 0, 0]"] ;
869 -> 899 ;
900 [label="X[42] <= 0.086\ngini = 0.667\nsamples = 3\nvalue = [0, 0, 0 ..., 0, 0, 0]"] ;
899 -> 900 ;
901 [label="gini = 0.0\nsamples = 1\nvalue = [0, 0, 0 ..., 0, 0, 0]"] ;
900 -> 901 ;
902 [label="X[42] <= 0.158\ngini = 0.5\nsamples = 2\nvalue = [0, 0, 0 ..., 0, 0, 0]"] ;
900 -> 902 ;
903 [label="gini = 0.0\nsamples = 1\nvalue = [0, 0, 0 ..., 0, 0, 0]"] ;
902 -> 903 ;
904 [label="gini = 0.0\nsamples = 1\nvalue = [0, 0, 0 ..., 0, 0, 0]"] ;
902 -> 904 ;
905 [label="gini = 0.0\nsamples = 6\nvalue = [0, 0, 0 ..., 0, 0, 0]"] ;
899 -> 905 ;
906 [label="X[43] <= 0.514\ngini = 0.982\nsamples = 1150\nvalue = [1, 0, 0 ..., 0, 0, 0]"] ;
836 -> 906 ;
907 [label="X[26] <= 3104.907\ngini = 0.981\nsamples = 916\nvalue = [0, 0, 0 ..., 0, 0, 0]"] ;
906 -> 907 ;
908 [label="X[44] <= 0.07\ngini = 0.98\nsamples = 914\nvalue = [0, 0, 0 ..., 0, 0, 0]"] ;
907 -> 908 ;
909 [label="X[48] <= 0.518\ngini = 0.981\nsamples = 302\nvalue = [0, 0, 0 ..., 0, 0, 0]"] ;
908 -> 909 ;
910 [label="X[53] <= -0.95\ngini = 0.983\nsamples = 264\nvalue = [0, 0, 0 ..., 0, 0, 0]"] ;
909 -> 910 ;
911 [label="X[44] <= -0.025\ngini = 0.984\nsamples = 102\nvalue = [0, 0, 0 ..., 0, 0, 0]"] ;
910 -> 911 ;
912 [label="X[10] <= 4.672\ngini = 0.72\nsamples = 5\nvalue = [0, 0, 0 ..., 0, 0, 0]"] ;
911 -> 912 ;
913 [label="X[24] <= 950.242\ngini = 0.667\nsamples = 3\nvalue = [0, 0, 0 ..., 0, 0, 0]"] ;
912 -> 913 ;
914 [label="X[39] <= 0.267\ngini = 0.5\nsamples = 2\nvalue = [0, 0, 0 ..., 0, 0, 0]"] ;
913 -> 914 ;
915 [label="gini = 0.0\nsamples = 1\nvalue = [0, 0, 0 ..., 0, 0, 0]"] ;
914 -> 915 ;
916 [label="gini = 0.0\nsamples = 1\nvalue = [0, 0, 0 ..., 0, 0, 0]"] ;
914 -> 916 ;
917 [label="gini = 0.0\nsamples = 1\nvalue = [0, 0, 0 ..., 0, 0, 0]"] ;
913 -> 917 ;
918 [label="gini = 0.0\nsamples = 2\nvalue = [0, 0, 0 ..., 0, 0, 0]"] ;
912 -> 918 ;
919 [label="X[0] <= 23.5\ngini = 0.983\nsamples = 97\nvalue = [0, 0, 0 ..., 0, 0, 0]"] ;
911 -> 919 ;
920 [label="X[27] <= 854.0\ngini = 0.72\nsamples = 5\nvalue = [0, 0, 0 ..., 0, 0, 0]"] ;
919 -> 920 ;
921 [label="X[19] <= 617.0\ngini = 0.667\nsamples = 3\nvalue = [0, 0, 0 ..., 0, 0, 0]"] ;
920 -> 921 ;
922 [label="X[39] <= 0.322\ngini = 0.5\nsamples = 2\nvalue = [0, 0, 0 ..., 0, 0, 0]"] ;
921 -> 922 ;
923 [label="gini = 0.0\nsamples = 1\nvalue = [0, 0, 0 ..., 0, 0, 0]"] ;
922 -> 923 ;
924 [label="gini = 0.0\nsamples = 1\nvalue = [0, 0, 0 ..., 0, 0, 0]"] ;
922 -> 924 ;
925 [label="gini = 0.0\nsamples = 1\nvalue = [0, 0, 0 ..., 0, 0, 0]"] ;
921 -> 925 ;
926 [label="gini = 0.0\nsamples = 2\nvalue = [0, 0, 0 ..., 0, 0, 0]"] ;
920 -> 926 ;
927 [label="X[0] <= 207.0\ngini = 0.983\nsamples = 92\nvalue = [0, 0, 0 ..., 0, 0, 0]"] ;
919 -> 927 ;
928 [label="X[1] <= 9.5\ngini = 0.981\nsamples = 63\nvalue = [0, 0, 0 ..., 0, 0, 0]"] ;
927 -> 928 ;
929 [label="X[52] <= -0.423\ngini = 0.86\nsamples = 11\nvalue = [0, 0, 0 ..., 0, 0, 0]"] ;
928 -> 929 ;
930 [label="gini = 0.0\nsamples = 2\nvalue = [0, 0, 0 ..., 0, 0, 0]"] ;
929 -> 930 ;
931 [label="X[19] <= 637.5\ngini = 0.84\nsamples = 9\nvalue = [0, 0, 0 ..., 0, 0, 0]"] ;
929 -> 931 ;
932 [label="X[5] <= 0.679\ngini = 0.816\nsamples = 7\nvalue = [0, 0, 0 ..., 0, 0, 0]"] ;
931 -> 932 ;
933 [label="X[57] <= 0.45\ngini = 0.8\nsamples = 5\nvalue = [0, 0, 0 ..., 0, 0, 0]"] ;
932 -> 933 ;
934 [label="gini = 0.0\nsamples = 1\nvalue = [0, 0, 0 ..., 0, 0, 0]"] ;
933 -> 934 ;
935 [label="X[24] <= 1025.688\ngini = 0.75\nsamples = 4\nvalue = [0, 0, 0 ..., 0, 0, 0]"] ;
933 -> 935 ;
936 [label="gini = 0.0\nsamples = 1\nvalue = [0, 0, 0 ..., 0, 0, 0]"] ;
935 -> 936 ;
937 [label="X[27] <= 298.0\ngini = 0.667\nsamples = 3\nvalue = [0, 0, 0 ..., 0, 0, 0]"] ;
935 -> 937 ;
938 [label="gini = 0.0\nsamples = 1\nvalue = [0, 0, 0 ..., 0, 0, 0]"] ;
937 -> 938 ;
939 [label="X[39] <= 0.211\ngini = 0.5\nsamples = 2\nvalue = [0, 0, 0 ..., 0, 0, 0]"] ;
937 -> 939 ;
940 [label="gini = 0.0\nsamples = 1\nvalue = [0, 0, 0 ..., 0, 0, 0]"] ;
939 -> 940 ;
941 [label="gini = 0.0\nsamples = 1\nvalue = [0, 0, 0 ..., 0, 0, 0]"] ;
939 -> 941 ;
942 [label="gini = 0.0\nsamples = 2\nvalue = [0, 0, 0 ..., 0, 0, 0]"] ;
932 -> 942 ;
943 [label="gini = 0.0\nsamples = 2\nvalue = [0, 0, 0 ..., 0, 0, 0]"] ;
931 -> 943 ;
944 [label="X[46] <= 0.02\ngini = 0.979\nsamples = 52\nvalue = [0, 0, 0 ..., 0, 0, 0]"] ;
928 -> 944 ;
945 [label="X[43] <= 0.399\ngini = 0.72\nsamples = 5\nvalue = [0, 0, 0 ..., 0, 0, 0]"] ;
944 -> 945 ;
946 [label="gini = 0.0\nsamples = 2\nvalue = [0, 0, 0 ..., 0, 0, 0]"] ;
945 -> 946 ;
947 [label="X[5] <= 0.688\ngini = 0.667\nsamples = 3\nvalue = [0, 0, 0 ..., 0, 0, 0]"] ;
945 -> 947 ;
948 [label="gini = 0.0\nsamples = 1\nvalue = [0, 0, 0 ..., 0, 0, 0]"] ;
947 -> 948 ;
949 [label="X[3] <= 0.544\ngini = 0.5\nsamples = 2\nvalue = [0, 0, 0 ..., 0, 0, 0]"] ;
947 -> 949 ;
950 [label="gini = 0.0\nsamples = 1\nvalue = [0, 0, 0 ..., 0, 0, 0]"] ;
949 -> 950 ;
951 [label="gini = 0.0\nsamples = 1\nvalue = [0, 0, 0 ..., 0, 0, 0]"] ;
949 -> 951 ;
952 [label="X[7] <= 7.5\ngini = 0.978\nsamples = 47\nvalue = [0, 0, 0 ..., 0, 0, 0]"] ;
944 -> 952 ;
953 [label="X[49] <= 0.267\ngini = 0.976\nsamples = 41\nvalue = [0, 0, 0 ..., 0, 0, 0]"] ;
952 -> 953 ;
954 [label="gini = 0.0\nsamples = 1\nvalue = [0, 0, 0 ..., 0, 0, 0]"] ;
953 -> 954 ;
955 [label="X[11] <= 3.5\ngini = 0.975\nsamples = 40\nvalue = [0, 0, 0 ..., 0, 0, 0]"] ;
953 -> 955 ;
956 [label="X[40] <= 0.4\ngini = 0.5\nsamples = 2\nvalue = [0, 0, 0 ..., 0, 0, 0]"] ;
955 -> 956 ;
957 [label="gini = 0.0\nsamples = 1\nvalue = [0, 0, 0 ..., 0, 0, 0]"] ;
956 -> 957 ;
958 [label="gini = 0.0\nsamples = 1\nvalue = [0, 0, 0 ..., 0, 0, 0]"] ;
956 -> 958 ;
959 [label="X[13] <= 0.5\ngini = 0.974\nsamples = 38\nvalue = [0, 0, 0 ..., 0, 0, 0]"] ;
955 -> 959 ;
960 [label="X[54] <= -0.086\ngini = 0.909\nsamples = 11\nvalue = [0, 0, 0 ..., 0, 0, 0]"] ;
959 -> 960 ;
961 [label="X[8] <= 1.5\ngini = 0.75\nsamples = 4\nvalue = [0, 0, 0 ..., 0, 0, 0]"] ;
960 -> 961 ;
962 [label="gini = 0.0\nsamples = 1\nvalue = [0, 0, 0 ..., 0, 0, 0]"] ;
961 -> 962 ;
963 [label="X[41] <= 0.023\ngini = 0.667\nsamples = 3\nvalue = [0, 0, 0 ..., 0, 0, 0]"] ;
961 -> 963 ;
964 [label="gini = 0.0\nsamples = 1\nvalue = [0, 0, 0 ..., 0, 0, 0]"] ;
963 -> 964 ;
965 [label="X[45] <= 0.05\ngini = 0.5\nsamples = 2\nvalue = [0, 0, 0 ..., 0, 0, 0]"] ;
963 -> 965 ;
966 [label="gini = 0.0\nsamples = 1\nvalue = [0, 0, 0 ..., 0, 0, 0]"] ;
965 -> 966 ;
967 [label="gini = 0.0\nsamples = 1\nvalue = [0, 0, 0 ..., 0, 0, 0]"] ;
965 -> 967 ;
968 [label="X[58] <= 0.059\ngini = 0.857\nsamples = 7\nvalue = [0, 0, 0 ..., 0, 0, 0]"] ;
960 -> 968 ;
969 [label="X[0] <= 84.0\ngini = 0.667\nsamples = 3\nvalue = [0, 0, 0 ..., 0, 0, 0]"] ;
968 -> 969 ;
970 [label="gini = 0.0\nsamples = 1\nvalue = [0, 0, 0 ..., 0, 0, 0]"] ;
969 -> 970 ;
971 [label="X[42] <= 0.111\ngini = 0.5\nsamples = 2\nvalue = [0, 0, 0 ..., 0, 0, 0]"] ;
969 -> 971 ;
972 [label="gini = 0.0\nsamples = 1\nvalue = [0, 0, 0 ..., 0, 0, 0]"] ;
971 -> 972 ;
973 [label="gini = 0.0\nsamples = 1\nvalue = [0, 0, 0 ..., 0, 0, 0]"] ;
971 -> 973 ;
974 [label="X[32] <= 0.5\ngini = 0.75\nsamples = 4\nvalue = [0, 0, 0 ..., 0, 0, 0]"] ;
968 -> 974 ;
975 [label="X[48] <= 0.478\ngini = 0.5\nsamples = 2\nvalue = [0, 0, 0 ..., 0, 0, 0]"] ;
974 -> 975 ;
976 [label="gini = 0.0\nsamples = 1\nvalue = [0, 0, 0 ..., 0, 0, 0]"] ;
975 -> 976 ;
977 [label="gini = 0.0\nsamples = 1\nvalue = [0, 0, 0 ..., 0, 0, 0]"] ;
975 -> 977 ;
978 [label="X[57] <= 0.189\ngini = 0.5\nsamples = 2\nvalue = [0, 0, 0 ..., 0, 0, 0]"] ;
974 -> 978 ;
979 [label="gini = 0.0\nsamples = 1\nvalue = [0, 0, 0 ..., 0, 0, 0]"] ;
978 -> 979 ;
980 [label="gini = 0.0\nsamples = 1\nvalue = [0, 0, 0 ..., 0, 0, 0]"] ;
978 -> 980 ;
981 [label="X[31] <= 0.5\ngini = 0.963\nsamples = 27\nvalue = [0, 0, 0 ..., 0, 0, 0]"] ;
959 -> 981 ;
982 [label="X[52] <= -0.444\ngini = 0.95\nsamples = 20\nvalue = [0, 0, 0 ..., 0, 0, 0]"] ;
981 -> 982 ;
983 [label="gini = 0.0\nsamples = 1\nvalue = [0, 0, 0 ..., 0, 0, 0]"] ;
982 -> 983 ;
984 [label="X[3] <= 0.378\ngini = 0.947\nsamples = 19\nvalue = [0, 0, 0 ..., 0, 0, 0]"] ;
982 -> 984 ;
985 [label="gini = 0.0\nsamples = 1\nvalue = [0, 0, 0 ..., 0, 0, 0]"] ;
984 -> 985 ;
986 [label="X[45] <= 0.035\ngini = 0.944\nsamples = 18\nvalue = [0, 0, 0 ..., 0, 0, 0]"] ;
984 -> 986 ;
987 [label="gini = 0.0\nsamples = 1\nvalue = [0, 0, 0 ..., 0, 0, 0]"] ;
986 -> 987 ;
988 [label="X[47] <= 0.487\ngini = 0.941\nsamples = 17\nvalue = [0, 0, 0 ..., 0, 0, 0]"] ;
986 -> 988 ;
989 [label="gini = 0.0\nsamples = 1\nvalue = [0, 0, 0 ..., 0, 0, 0]"] ;
988 -> 989 ;
990 [label="X[0] <= 34.5\ngini = 0.938\nsamples = 16\nvalue = [0, 0, 0 ..., 0, 0, 0]"] ;
988 -> 990 ;
991 [label="gini = 0.0\nsamples = 1\nvalue = [0, 0, 0 ..., 0, 0, 0]"] ;
990 -> 991 ;
992 [label="X[27] <= 687.0\ngini = 0.933\nsamples = 15\nvalue = [0, 0, 0 ..., 0, 0, 0]"] ;
990 -> 992 ;
993 [label="gini = 0.0\nsamples = 1\nvalue = [0, 0, 0 ..., 0, 0, 0]"] ;
992 -> 993 ;
994 [label="X[54] <= -0.075\ngini = 0.929\nsamples = 14\nvalue = [0, 0, 0 ..., 0, 0, 0]"] ;
992 -> 994 ;
995 [label="gini = 0.0\nsamples = 1\nvalue = [0, 0, 0 ..., 0, 0, 0]"] ;
994 -> 995 ;
996 [label="X[34] <= 0.5\ngini = 0.923\nsamples = 13\nvalue = [0, 0, 0 ..., 0, 0, 0]"] ;
994 -> 996 ;
997 [label="X[40] <= 0.04\ngini = 0.909\nsamples = 11\nvalue = [0, 0, 0 ..., 0, 0, 0]"] ;
996 -> 997 ;
998 [label="gini = 0.0\nsamples = 1\nvalue = [0, 0, 0 ..., 0, 0, 0]"] ;
997 -> 998 ;
999 [label="X[8] <= 1.5\ngini = 0.9\nsamples = 10\nvalue = [0, 0, 0 ..., 0, 0, 0]"] ;
997 -> 999 ;
1000 [label="X[39] <= 0.052\ngini = 0.833\nsamples = 6\nvalue = [0, 0, 0 ..., 0, 0, 0]"] ;
999 -> 1000 ;
1001 [label="gini = 0.0\nsamples = 1\nvalue = [0, 0, 0 ..., 0, 0, 0]"] ;
1000 -> 1001 ;
1002 [label="X[28] <= 3050.0\ngini = 0.8\nsamples = 5\nvalue = [0, 0, 0 ..., 0, 0, 0]"] ;
1000 -> 1002 ;
1003 [label="X[48] <= 0.477\ngini = 0.5\nsamples = 2\nvalue = [0, 0, 0 ..., 0, 0, 0]"] ;
1002 -> 1003 ;
1004 [label="gini = 0.0\nsamples = 1\nvalue = [0, 0, 0 ..., 0, 0, 0]"] ;
1003 -> 1004 ;
1005 [label="gini = 0.0\nsamples = 1\nvalue = [0, 0, 0 ..., 0, 0, 0]"] ;
1003 -> 1005 ;
1006 [label="X[30] <= 0.5\ngini = 0.667\nsamples = 3\nvalue = [0, 0, 0 ..., 0, 0, 0]"] ;
1002 -> 1006 ;
1007 [label="gini = 0.0\nsamples = 1\nvalue = [0, 0, 0 ..., 0, 0, 0]"] ;
1006 -> 1007 ;
1008 [label="X[56] <= -0.25\ngini = 0.5\nsamples = 2\nvalue = [0, 0, 0 ..., 0, 0, 0]"] ;
1006 -> 1008 ;
1009 [label="gini = 0.0\nsamples = 1\nvalue = [0, 0, 0 ..., 0, 0, 0]"] ;
1008 -> 1009 ;
1010 [label="gini = 0.0\nsamples = 1\nvalue = [0, 0, 0 ..., 0, 0, 0]"] ;
1008 -> 1010 ;
1011 [label="X[57] <= 0.223\ngini = 0.75\nsamples = 4\nvalue = [0, 0, 0 ..., 0, 0, 0]"] ;
999 -> 1011 ;
1012 [label="gini = 0.0\nsamples = 1\nvalue = [0, 0, 0 ..., 0, 0, 0]"] ;
1011 -> 1012 ;
1013 [label="X[38] <= 0.042\ngini = 0.667\nsamples = 3\nvalue = [0, 0, 0 ..., 0, 0, 0]"] ;
1011 -> 1013 ;
1014 [label="gini = 0.0\nsamples = 1\nvalue = [0, 0, 0 ..., 0, 0, 0]"] ;
1013 -> 1014 ;
1015 [label="X[46] <= 0.047\ngini = 0.5\nsamples = 2\nvalue = [0, 0, 0 ..., 0, 0, 0]"] ;
1013 -> 1015 ;
1016 [label="gini = 0.0\nsamples = 1\nvalue = [0, 0, 0 ..., 0, 0, 0]"] ;
1015 -> 1016 ;
1017 [label="gini = 0.0\nsamples = 1\nvalue = [0, 0, 0 ..., 0, 0, 0]"] ;
1015 -> 1017 ;
1018 [label="X[0] <= 90.0\ngini = 0.5\nsamples = 2\nvalue = [0, 0, 0 ..., 0, 0, 0]"] ;
996 -> 1018 ;
1019 [label="gini = 0.0\nsamples = 1\nvalue = [0, 0, 0 ..., 0, 0, 0]"] ;
1018 -> 1019 ;
1020 [label="gini = 0.0\nsamples = 1\nvalue = [0, 0, 0 ..., 0, 0, 0]"] ;
1018 -> 1020 ;
1021 [label="X[20] <= 17.893\ngini = 0.857\nsamples = 7\nvalue = [0, 0, 0 ..., 0, 0, 0]"] ;
981 -> 1021 ;
1022 [label="gini = 0.0\nsamples = 1\nvalue = [0, 0, 0 ..., 0, 0, 0]"] ;
1021 -> 1022 ;
1023 [label="X[50] <= 0.042\ngini = 0.833\nsamples = 6\nvalue = [0, 0, 0 ..., 0, 0, 0]"] ;
1021 -> 1023 ;
1024 [label="gini = 0.0\nsamples = 1\nvalue = [0, 0, 0 ..., 0, 0, 0]"] ;
1023 -> 1024 ;
1025 [label="X[54] <= -0.086\ngini = 0.8\nsamples = 5\nvalue = [0, 0, 0 ..., 0, 0, 0]"] ;
1023 -> 1025 ;
1026 [label="gini = 0.0\nsamples = 1\nvalue = [0, 0, 0 ..., 0, 0, 0]"] ;
1025 -> 1026 ;
1027 [label="X[55] <= 0.2\ngini = 0.75\nsamples = 4\nvalue = [0, 0, 0 ..., 0, 0, 0]"] ;
1025 -> 1027 ;
1028 [label="gini = 0.0\nsamples = 1\nvalue = [0, 0, 0 ..., 0, 0, 0]"] ;
1027 -> 1028 ;
1029 [label="X[52] <= -0.426\ngini = 0.667\nsamples = 3\nvalue = [0, 0, 0 ..., 0, 0, 0]"] ;
1027 -> 1029 ;
1030 [label="gini = 0.0\nsamples = 1\nvalue = [0, 0, 0 ..., 0, 0, 0]"] ;
1029 -> 1030 ;
1031 [label="X[40] <= 0.045\ngini = 0.5\nsamples = 2\nvalue = [0, 0, 0 ..., 0, 0, 0]"] ;
1029 -> 1031 ;
1032 [label="gini = 0.0\nsamples = 1\nvalue = [0, 0, 0 ..., 0, 0, 0]"] ;
1031 -> 1032 ;
1033 [label="gini = 0.0\nsamples = 1\nvalue = [0, 0, 0 ..., 0, 0, 0]"] ;
1031 -> 1033 ;
1034 [label="X[29] <= 1962.083\ngini = 0.778\nsamples = 6\nvalue = [0, 0, 0 ..., 0, 0, 0]"] ;
952 -> 1034 ;
1035 [label="X[57] <= 0.35\ngini = 0.667\nsamples = 3\nvalue = [0, 0, 0 ..., 0, 0, 0]"] ;
1034 -> 1035 ;
1036 [label="gini = 0.0\nsamples = 1\nvalue = [0, 0, 0 ..., 0, 0, 0]"] ;
1035 -> 1036 ;
1037 [label="X[25] <= 3527.865\ngini = 0.5\nsamples = 2\nvalue = [0, 0, 0 ..., 0, 0, 0]"] ;
1035 -> 1037 ;
1038 [label="gini = 0.0\nsamples = 1\nvalue = [0, 0, 0 ..., 0, 0, 0]"] ;
1037 -> 1038 ;
1039 [label="gini = 0.0\nsamples = 1\nvalue = [0, 0, 0 ..., 0, 0, 0]"] ;
1037 -> 1039 ;
1040 [label="X[43] <= 0.48\ngini = 0.444\nsamples = 3\nvalue = [0, 0, 0 ..., 0, 0, 0]"] ;
1034 -> 1040 ;
1041 [label="gini = 0.0\nsamples = 1\nvalue = [0, 0, 0 ..., 0, 0, 0]"] ;
1040 -> 1041 ;
1042 [label="gini = 0.0\nsamples = 2\nvalue = [0, 0, 0 ..., 0, 0, 0]"] ;
1040 -> 1042 ;
1043 [label="X[27] <= 2750.0\ngini = 0.942\nsamples = 29\nvalue = [0, 0, 0 ..., 0, 0, 0]"] ;
927 -> 1043 ;
1044 [label="X[3] <= 0.499\ngini = 0.935\nsamples = 26\nvalue = [0, 0, 0 ..., 0, 0, 0]"] ;
1043 -> 1044 ;
1045 [label="X[40] <= 0.162\ngini = 0.901\nsamples = 18\nvalue = [0, 0, 0 ..., 0, 0, 0]"] ;
1044 -> 1045 ;
1046 [label="X[48] <= 0.415\ngini = 0.78\nsamples = 10\nvalue = [0, 0, 0 ..., 0, 0, 0]"] ;
1045 -> 1046 ;
1047 [label="gini = 0.0\nsamples = 3\nvalue = [0, 0, 0 ..., 0, 0, 0]"] ;
1046 -> 1047 ;
1048 [label="X[43] <= 0.447\ngini = 0.857\nsamples = 7\nvalue = [0, 0, 0 ..., 0, 0, 0]"] ;
1046 -> 1048 ;
1049 [label="gini = 0.0\nsamples = 1\nvalue = [0, 0, 0 ..., 0, 0, 0]"] ;
1048 -> 1049 ;
1050 [label="X[31] <= 0.5\ngini = 0.833\nsamples = 6\nvalue = [0, 0, 0 ..., 0, 0, 0]"] ;
1048 -> 1050 ;
1051 [label="X[56] <= -0.046\ngini = 0.8\nsamples = 5\nvalue = [0, 0, 0 ..., 0, 0, 0]"] ;
1050 -> 1051 ;
1052 [label="gini = 0.0\nsamples = 1\nvalue = [0, 0, 0 ..., 0, 0, 0]"] ;
1051 -> 1052 ;
1053 [label="X[7] <= 6.0\ngini = 0.75\nsamples = 4\nvalue = [0, 0, 0 ..., 0, 0, 0]"] ;
1051 -> 1053 ;
1054 [label="gini = 0.0\nsamples = 1\nvalue = [0, 0, 0 ..., 0, 0, 0]"] ;
1053 -> 1054 ;
1055 [label="X[39] <= 0.047\ngini = 0.667\nsamples = 3\nvalue = [0, 0, 0 ..., 0, 0, 0]"] ;
1053 -> 1055 ;
1056 [label="gini = 0.0\nsamples = 1\nvalue = [0, 0, 0 ..., 0, 0, 0]"] ;
1055 -> 1056 ;
1057 [label="X[46] <= 0.034\ngini = 0.5\nsamples = 2\nvalue = [0, 0, 0 ..., 0, 0, 0]"] ;
1055 -> 1057 ;
1058 [label="gini = 0.0\nsamples = 1\nvalue = [0, 0, 0 ..., 0, 0, 0]"] ;
1057 -> 1058 ;
1059 [label="gini = 0.0\nsamples = 1\nvalue = [0, 0, 0 ..., 0, 0, 0]"] ;
1057 -> 1059 ;
1060 [label="gini = 0.0\nsamples = 1\nvalue = [0, 0, 0 ..., 0, 0, 0]"] ;
1050 -> 1060 ;
1061 [label="X[10] <= 4.579\ngini = 0.844\nsamples = 8\nvalue = [0, 0, 0 ..., 0, 0, 0]"] ;
1045 -> 1061 ;
1062 [label="X[2] <= 1061.0\ngini = 0.444\nsamples = 3\nvalue = [0, 0, 0 ..., 0, 0, 0]"] ;
1061 -> 1062 ;
1063 [label="gini = 0.0\nsamples = 2\nvalue = [0, 0, 0 ..., 0, 0, 0]"] ;
1062 -> 1063 ;
1064 [label="gini = 0.0\nsamples = 1\nvalue = [0, 0, 0 ..., 0, 0, 0]"] ;
1062 -> 1064 ;
